{"layers":[{"0":{},"1":{},"2":{},"3":{},"4":{},"5":{},"6":{},"7":{},"8":{},"9":{},"10":{},"11":{},"12":{},"13":{},"14":{},"15":{},"16":{},"17":{},"18":{},"19":{},"20":{},"21":{},"22":{},"23":{},"24":{},"25":{},"26":{},"27":{},"28":{},"29":{},"30":{},"31":{},"32":{},"33":{},"34":{},"35":{},"36":{},"37":{},"38":{},"39":{},"40":{},"41":{},"42":{},"43":{},"44":{},"45":{},"46":{},"47":{},"48":{},"49":{},"50":{},"51":{},"52":{},"53":{},"54":{},"55":{},"56":{},"57":{},"58":{},"59":{},"60":{},"61":{},"62":{},"63":{},"64":{},"65":{},"66":{},"67":{},"68":{},"69":{},"70":{},"71":{},"72":{},"73":{},"74":{},"75":{},"76":{},"77":{},"78":{},"79":{},"80":{},"81":{},"82":{},"83":{},"84":{},"85":{},"86":{},"87":{},"88":{},"89":{},"90":{},"91":{},"92":{},"93":{},"94":{},"95":{},"96":{},"97":{},"98":{},"99":{},"100":{},"101":{},"102":{},"103":{},"104":{},"105":{},"106":{},"107":{},"108":{},"109":{},"110":{},"111":{},"112":{},"113":{},"114":{},"115":{},"116":{},"117":{},"118":{},"119":{},"120":{},"121":{},"122":{},"123":{},"124":{},"125":{},"126":{},"127":{},"128":{},"129":{},"130":{},"131":{},"132":{},"133":{},"134":{},"135":{},"136":{},"137":{},"138":{},"139":{},"140":{},"141":{},"142":{},"143":{},"144":{},"145":{},"146":{},"147":{},"148":{},"149":{},"150":{},"151":{},"152":{},"153":{},"154":{},"155":{},"156":{},"157":{},"158":{},"159":{},"160":{},"161":{},"162":{},"163":{},"164":{},"165":{},"166":{},"167":{},"168":{},"169":{},"170":{},"171":{},"172":{},"173":{},"174":{},"175":{},"176":{},"177":{},"178":{},"179":{},"180":{},"181":{},"182":{},"183":{},"184":{},"185":{},"186":{},"187":{},"188":{},"189":{},"190":{},"191":{},"192":{},"193":{},"194":{},"195":{},"196":{},"197":{},"198":{},"199":{},"200":{},"201":{},"202":{},"203":{},"204":{},"205":{},"206":{},"207":{},"208":{},"209":{},"210":{},"211":{},"212":{},"213":{},"214":{},"215":{},"216":{},"217":{},"218":{},"219":{},"220":{},"221":{},"222":{},"223":{},"224":{},"225":{},"226":{},"227":{},"228":{},"229":{},"230":{},"231":{},"232":{},"233":{},"234":{},"235":{},"236":{},"237":{},"238":{},"239":{},"240":{},"241":{},"242":{},"243":{},"244":{},"245":{},"246":{},"247":{},"248":{},"249":{},"250":{},"251":{},"252":{},"253":{},"254":{},"255":{},"256":{},"257":{},"258":{},"259":{},"260":{},"261":{},"262":{},"263":{},"264":{},"265":{},"266":{},"267":{},"268":{},"269":{},"270":{},"271":{},"272":{},"273":{},"274":{},"275":{},"276":{},"277":{},"278":{},"279":{},"280":{},"281":{},"282":{},"283":{},"284":{},"285":{},"286":{},"287":{},"288":{},"289":{},"290":{},"291":{},"292":{},"293":{},"294":{},"295":{},"296":{},"297":{},"298":{},"299":{},"300":{},"301":{},"302":{},"303":{},"304":{},"305":{},"306":{},"307":{},"308":{},"309":{},"310":{},"311":{},"312":{},"313":{},"314":{},"315":{},"316":{},"317":{},"318":{},"319":{},"320":{},"321":{},"322":{},"323":{},"324":{},"325":{},"326":{},"327":{},"328":{},"329":{},"330":{},"331":{},"332":{},"333":{},"334":{},"335":{},"336":{},"337":{},"338":{},"339":{},"340":{},"341":{},"342":{},"343":{},"344":{},"345":{},"346":{},"347":{},"348":{},"349":{},"350":{},"351":{},"352":{},"353":{},"354":{},"355":{},"356":{},"357":{},"358":{},"359":{},"360":{},"361":{},"362":{},"363":{},"364":{},"365":{},"366":{}},{"0":{"bias":-0.2117360469651611,"weights":{"0":0.0830575031826323,"1":0.2665763684110279,"2":-0.10973736182321477,"3":0.16182113045346466,"4":-0.17222085555866176,"5":-0.17604448460715744,"6":0.17859748158010177,"7":0.18939820304466592,"8":0.10740873123848085,"9":0.03209240455013019,"10":-0.18909383293403834,"11":-0.08399431576368108,"12":-0.15810091868955287,"13":0.15192578254351286,"14":0.14511370244600819,"15":-0.010104117700577704,"16":0.11029192741480899,"17":-0.04659059659591254,"18":0.04662982130321574,"19":0.08610313824507304,"20":-0.1580022497091421,"21":-0.20422900155230275,"22":-0.03375407259343241,"23":0.058327799148294966,"24":-0.07836940324448351,"25":0.06148500366032563,"26":0.1730474397882718,"27":-0.11338252195308417,"28":-0.09970891246328635,"29":-0.008268000502254425,"30":-0.056129042327422086,"31":-0.2122930764679625,"32":-0.15912759383282687,"33":-0.1470078348676474,"34":0.059827312010367034,"35":0.17458102261046016,"36":-0.09115901462183912,"37":0.11050651695881067,"38":0.1480561136313292,"39":0.19554244673762358,"40":-0.13054916329118338,"41":-0.16922970841952845,"42":-0.009330534772078476,"43":0.004605863762926505,"44":0.032427402984190314,"45":-0.17825766666779247,"46":-0.13040724771160522,"47":-0.18797748122708857,"48":0.04316499878986232,"49":-0.15599453228460705,"50":-0.13543961136585667,"51":0.10849702551453397,"52":-0.22025211196572894,"53":-0.1675883743647302,"54":-0.004011311597381166,"55":-0.018910853224180988,"56":0.09254557615849969,"57":0.12732938465467747,"58":-0.09801638824130002,"59":-0.19078569046542826,"60":0.04565017761073873,"61":0.15528629074410033,"62":0.13131364608055884,"63":-0.20836781005763538,"64":-0.17514848347720338,"65":-0.025438038361120886,"66":-0.09926821980483104,"67":-0.19438976148694037,"68":0.09514765338401648,"69":0.11936859940727548,"70":0.18436578270297943,"71":0.14953511396972355,"72":0.13255567097101434,"73":0.05054303444723172,"74":0.1413665418858904,"75":-0.15521198695950025,"76":-0.1366314685056071,"77":-0.011379960985247267,"78":-0.03482188277090481,"79":0.03621584861987236,"80":0.01744269414175767,"81":0.10214687315826088,"82":-0.05833772747188748,"83":-0.15129397850506746,"84":-0.1739320759299843,"85":-0.05022449388061241,"86":0.11024837090090317,"87":-0.0806781831056193,"88":0.024368823329314598,"89":-0.056986192217659895,"90":-0.18354037200594522,"91":0.19973607570863133,"92":0.04127146564352693,"93":-0.07900232632429091,"94":0.17746236826491568,"95":0.1378041548128069,"96":0.1155348221526599,"97":-0.0724306080325205,"98":-0.03959457060531793,"99":-0.15530173639079375,"100":-0.15068626953903178,"101":0.004182056231709949,"102":0.1339516547367986,"103":-0.0836159098996468,"104":-0.0020689187852450516,"105":-0.16358308879015276,"106":-0.06828478850279468,"107":-0.1915166012292553,"108":-0.21109029593636802,"109":0.15336158358727453,"110":-0.1393973072826556,"111":0.10771663348596881,"112":0.1344225094035205,"113":-0.04754870936773326,"114":0.14565997206665363,"115":0.09036534147511611,"116":-0.009972206068430701,"117":-0.16460860844637426,"118":-0.17408720574726938,"119":-0.12256894454594099,"120":-0.16319832583058017,"121":-0.022204077393686825,"122":-0.1633085944583964,"123":-0.12430565345157778,"124":0.07351101238807949,"125":0.14262339737659263,"126":0.168613755109003,"127":-0.14424482008722755,"128":-0.10347021101054674,"129":0.1592615720573096,"130":-0.19158442624844796,"131":0.01962028220469735,"132":-0.09170986266151915,"133":0.15406083640247803,"134":-0.1469424414782828,"135":-0.1863439466298768,"136":-0.12038757790247706,"137":0.06094025164923133,"138":-0.06171303011138065,"139":0.05446186129089933,"140":0.07077137977159023,"141":-0.03787927765570227,"142":0.08194731195427442,"143":-0.05597177588836173,"144":0.15299943861393642,"145":-0.1488834399221015,"146":-0.09313586519017664,"147":0.13334508587512586,"148":-0.19142971135014403,"149":0.09337330564984728,"150":-0.034507429167991675,"151":-0.053197855617275726,"152":-0.07639762344548558,"153":0.13448626424823074,"154":0.13524724471650842,"155":-0.06590503849609775,"156":0.09476845280414692,"157":-0.1462312269001982,"158":0.08306066826474456,"159":0.10358517188892508,"160":0.14305497702652076,"161":0.13845225810338135,"162":0.13117434251593058,"163":0.10417386945184635,"164":-0.037420132528004024,"165":0.19331394273545596,"166":0.05294682406281375,"167":0.06401876413256782,"168":-0.028912860391637648,"169":-0.0806895101192849,"170":0.1681668684136577,"171":0.04569505530779802,"172":-0.005743501981875881,"173":-0.015691715907215388,"174":-0.01317194401244127,"175":-0.06041410946595032,"176":-0.1667745727672963,"177":-0.10334065933709537,"178":-0.06392575287770241,"179":0.14530286507950765,"180":-0.12168136000668897,"181":-0.19825008420851828,"182":-0.12367887526473066,"183":0.001539644501142481,"184":0.057321233234236935,"185":0.11406287037724692,"186":-0.1190108448980567,"187":-0.15446895171411504,"188":-0.19437768834368835,"189":-0.14310177098078233,"190":0.19657561280038252,"191":0.19346710186877644,"192":0.05963964426618343,"193":-0.05787766363222671,"194":0.1055192323125879,"195":0.021537670780838087,"196":0.08081001134235742,"197":-0.059351691025032655,"198":0.17550305822686316,"199":0.10259317310596254,"200":-0.07226521769416858,"201":-0.1675848458657832,"202":-0.19581837916364445,"203":-0.05901775291921605,"204":0.18877462382618987,"205":0.17130456005513928,"206":0.05013018937742643,"207":0.06260832716825314,"208":0.0913559180428653,"209":0.06565763739772659,"210":-0.1218293040423165,"211":0.026679271722168052,"212":-0.12189478509407517,"213":-0.19715666018658404,"214":0.05435958158671433,"215":0.12504778915513678,"216":0.16520338932577466,"217":-0.01775262365831608,"218":-0.01355863399120718,"219":-0.034141160212457944,"220":-0.13936373859122103,"221":0.10638025356112492,"222":0.047233311093744505,"223":-0.18998217567086023,"224":-0.17882917781515031,"225":0.13106980873525312,"226":-0.0047822700477073805,"227":0.15998000138470456,"228":0.050459206929151186,"229":0.03165417679865704,"230":-0.06367189154016958,"231":0.03536690641693882,"232":-0.03796940319252406,"233":-0.15008675590669127,"234":0.022241334346075645,"235":0.1120787828264891,"236":-0.16905827482666466,"237":-0.12227536696985498,"238":0.025571411465180497,"239":0.11415331672905071,"240":-0.13402259348275172,"241":0.1495158391933796,"242":0.1733886104549255,"243":0.19968461394294054,"244":0.17026682169480364,"245":0.0628710373853951,"246":0.11243985849788636,"247":0.17978171775859825,"248":-0.0003336124921966935,"249":-0.07064255168725976,"250":0.21000406093344054,"251":0.14184409543710175,"252":-0.0799906588339049,"253":-0.005781218071260143,"254":-0.17692736432857067,"255":0.10499361039925759,"256":0.1513592351132165,"257":0.14453864992257837,"258":-0.1872116455980487,"259":-0.19536837377040933,"260":-0.12116103570980984,"261":0.1994586439937175,"262":-0.07017070530314301,"263":0.1250848752028484,"264":-0.2262569923016474,"265":-0.11667712960172281,"266":0.07416137714491494,"267":0.04114431238079359,"268":0.06267558437924743,"269":0.0029355473333023663,"270":0.045309804256421365,"271":0.05859902155430995,"272":0.12679001032570456,"273":0.018205386884785776,"274":0.1488363593823348,"275":-0.06512784794755348,"276":-0.15136521555271493,"277":-0.11499231537997509,"278":0.1467554854636511,"279":-0.07795347055147259,"280":-0.18712402651707138,"281":-0.07744739061346369,"282":-0.16009007545353882,"283":-0.10827986602424644,"284":-0.16258191497673108,"285":-0.013277208060397571,"286":0.056531235212599264,"287":-0.004356263915651955,"288":-0.17044854446359997,"289":-0.16101668990855048,"290":-0.16222725719849626,"291":0.10537922195773254,"292":-0.12448953365910032,"293":-0.13363392592438006,"294":-0.06922629241439371,"295":-0.10877288067457505,"296":0.163407452460872,"297":-0.1927927281840013,"298":-0.16591326461419398,"299":0.04633532707327733,"300":0.1629876392574596,"301":0.0349915017540408,"302":0.1568804592481671,"303":-0.01378652414441508,"304":-0.10378068266924341,"305":-0.14561639929884815,"306":-0.16060783183961636,"307":-0.13447306354350602,"308":-0.19322013702219826,"309":-0.0888292770928485,"310":-0.014804274066213848,"311":0.11779005997878539,"312":0.06385116488413903,"313":0.02100679236515854,"314":0.1895605958571864,"315":-0.08847191146368126,"316":0.1130220945310916,"317":0.1699037261321499,"318":-0.17692598610723206,"319":0.18274031050711845,"320":-0.028777729168435663,"321":0.12050185002041788,"322":0.04948141242240518,"323":0.03234218333546194,"324":-0.034172377697354615,"325":0.1872602332347484,"326":-0.045640460707563286,"327":-0.21395726508223026,"328":-0.004106201059492875,"329":-0.003260384087360752,"330":-0.18184230757720013,"331":-0.13066788080179945,"332":0.04830649750411049,"333":0.10165583458125953,"334":-0.11798123862355372,"335":-0.07850899543646046,"336":-0.0022475590279728845,"337":0.04325727066184144,"338":-0.0059372821307519755,"339":0.1750532506359389,"340":0.13094994625060058,"341":0.1941513969595744,"342":-0.014325166235295334,"343":0.1471080975137124,"344":0.11849069938812222,"345":0.05831010397976978,"346":0.09281799280367081,"347":-0.15253765656386972,"348":-0.0841955491500758,"349":0.08003449698639897,"350":0.08113948643827427,"351":0.14706217683036946,"352":-0.014116277282823922,"353":-0.026305321575592667,"354":-0.10704496418585098,"355":-0.040733208090270104,"356":0.1195169323564161,"357":-0.13668862108601917,"358":-0.02073984535864274,"359":0.09331963362074507,"360":-0.1307127449005907,"361":-0.01588421243607784,"362":-0.09290603319260501,"363":0.10502354337865016,"364":-0.1879677866628848,"365":-0.11803305695378069,"366":-0.17736553223145138}},"1":{"bias":-0.07118489243414497,"weights":{"0":-0.024973895429660213,"1":0.06572448992727586,"2":0.2507070278808716,"3":-0.05307822275716019,"4":0.1490595546075157,"5":-0.15172152167762984,"6":-0.13234634650753443,"7":-0.17953541114751867,"8":-0.11214440668602871,"9":0.15794430065419718,"10":-0.0402864058887627,"11":0.03992702343928427,"12":-0.24769532470487976,"13":-0.22113457393044098,"14":0.001731019180163551,"15":-0.20760077078026618,"16":-0.15868018222078584,"17":0.16748449475610896,"18":-0.14190776653344803,"19":-0.15988872253421602,"20":-0.12671884420591276,"21":-0.31754994972178385,"22":-0.07191377332425,"23":0.16068794495149072,"24":-0.001503827077721098,"25":-0.17338632201939297,"26":0.04146213695139487,"27":-0.06742445254965411,"28":0.035146608359771285,"29":-0.12372683569824795,"30":-0.19620898000641357,"31":0.0998391392825542,"32":0.19544510578543853,"33":0.03244679877310828,"34":0.06300250374765114,"35":-0.09802788950707067,"36":0.08198372273346172,"37":0.040035314754655986,"38":-0.1922119359746752,"39":0.011846327996788673,"40":0.05086395911114832,"41":-0.14900914603624354,"42":0.08808927774326188,"43":-0.09684451127161307,"44":0.0016636931180889576,"45":0.12005195694176217,"46":0.060969112799360674,"47":-0.04711394457943741,"48":0.05742725798635595,"49":-0.09160835408357812,"50":-0.1533914014864832,"51":0.03700546082645013,"52":-0.21205630412468304,"53":0.02161656418021661,"54":-0.08442666392142097,"55":-0.05507685330136166,"56":-0.19487471276669177,"57":0.16154230683458337,"58":-0.006108538679766807,"59":0.13931150039908702,"60":-0.048591635569760344,"61":0.3103686758590462,"62":0.19002535651943125,"63":0.06327933622934388,"64":0.21114020074016543,"65":0.17712308906880228,"66":0.17976460284052928,"67":-0.16726949523138052,"68":0.038670729820861074,"69":-0.07674238795639134,"70":0.08340355772728791,"71":0.17432397307813563,"72":0.19137673467059943,"73":0.22433422853335078,"74":-0.07427459712503635,"75":0.22076367017905915,"76":0.10268456623064964,"77":-0.009361948264234877,"78":-0.06628629509512063,"79":-0.02403901595680235,"80":0.10780939972487119,"81":-0.06724462303740164,"82":0.07983987773265551,"83":0.07940217439739683,"84":-0.12408363495753066,"85":0.15577434368588616,"86":-0.17022907102034793,"87":-0.1192152037193051,"88":-0.06807724183836136,"89":-0.1380761922176824,"90":-0.05478804818026245,"91":-0.0016590102804989936,"92":-0.016316502540333146,"93":-0.12312887762351976,"94":0.045840063779898584,"95":0.21146123155325103,"96":0.17080259632549963,"97":-0.08360089891656605,"98":-0.12319622501823083,"99":-0.1549744852933676,"100":-0.06531438995684957,"101":0.1421658380014782,"102":0.12290304786626445,"103":0.05833993200674943,"104":0.08055137871893504,"105":0.013177000370317557,"106":0.14501437287401736,"107":0.21263504214467815,"108":-0.10976107677364762,"109":0.23208400994556444,"110":0.21805775170643488,"111":0.1902504277573361,"112":-0.07947551344567569,"113":0.09039775134128662,"114":-0.15177521620601725,"115":0.18878918406230244,"116":0.008751756511665711,"117":0.07552683625797682,"118":-0.13141793198024568,"119":-0.19531465575998716,"120":-0.059900669775370535,"121":-0.10105720218970125,"122":-0.09942898233666653,"123":-0.05467824399163751,"124":0.20951241886688418,"125":0.17099158766201436,"126":0.0015295952106073477,"127":0.053846146635515846,"128":-0.037981751060463975,"129":0.05480176979673606,"130":-0.18478966639213906,"131":-0.03805233714673562,"132":0.07886639701171509,"133":-0.06458296205590076,"134":-0.027364320461692484,"135":-0.019985525584977522,"136":-0.03129396211277638,"137":-0.011491971889278746,"138":0.035540409756892266,"139":0.13915831022084427,"140":0.09337425608967194,"141":0.1285278143727499,"142":0.10615256226776164,"143":0.16777113065780605,"144":-0.15456097740656458,"145":0.056671026220257575,"146":-0.16844909647612977,"147":0.13560066713095445,"148":0.15266195729459692,"149":0.10074815581719558,"150":-0.24750642601232173,"151":0.03768707939161527,"152":-0.16898987101061627,"153":-0.09958018878082296,"154":-0.14590955191766897,"155":-0.0185418724743094,"156":0.024749687924297176,"157":-0.13848048119496306,"158":0.002170239363044044,"159":-0.1818684049938621,"160":-0.22038518960292763,"161":-0.1002801485227531,"162":-0.24336401173649916,"163":-0.18215263315266744,"164":-0.12897268000196793,"165":-0.08312682056992568,"166":-0.12416999112644307,"167":0.07946719786918363,"168":0.07562594078597065,"169":-0.18716729850708821,"170":-0.05071521038540123,"171":0.18305548347974385,"172":0.15722360981561773,"173":-0.06660548743184184,"174":-0.16083450425851567,"175":-0.1278032143555241,"176":-0.05773433784383023,"177":-0.007658121452558275,"178":-0.017004439365280285,"179":-0.11023870444816271,"180":0.05183167874285304,"181":0.018336875134517504,"182":0.15396957903918418,"183":-0.10518627461690976,"184":-0.0383246579933422,"185":0.07031504353426343,"186":-0.024979926491658783,"187":-0.08577434909427867,"188":-0.15271528480359248,"189":-0.3828250869242604,"190":0.07583276564910695,"191":-0.09248866078498473,"192":0.1161652054589529,"193":0.002044730251585189,"194":0.02040888206942356,"195":0.23683162760383186,"196":0.01189375090619512,"197":-0.006230539365577729,"198":0.02711651744041585,"199":-0.163601827272142,"200":0.0011503759933095535,"201":-0.08294850343712407,"202":0.20667256153519276,"203":0.151946105364121,"204":0.21856449737934022,"205":0.29906816993856367,"206":0.14434215819760013,"207":0.24287750568083813,"208":0.0060879041726871926,"209":-0.09923963723294164,"210":-0.198957169152071,"211":0.11156714595604536,"212":0.10735841658603222,"213":-0.1945379893984481,"214":-0.07444350697096391,"215":-0.030613901746205506,"216":-0.05275919128200115,"217":-0.03881076794253439,"218":-0.12744973633087825,"219":0.05981986246512251,"220":-0.06690535927942018,"221":-0.04267135575538237,"222":-0.04691245214701902,"223":0.112275053689281,"224":-0.15829351213287018,"225":-0.19002059325954052,"226":-0.1559303498199366,"227":0.08875998831112145,"228":-0.030156493891095874,"229":-0.035148523729207556,"230":-0.16289279952507754,"231":0.11720794255315933,"232":-0.0003462813128917981,"233":0.016745373889338843,"234":0.008202568844660998,"235":0.15560564310835426,"236":0.07305083159297936,"237":-0.047824039174983186,"238":0.104845180396106,"239":0.09296077235025066,"240":0.17566547998680368,"241":-0.035168642309559614,"242":0.07745289700105311,"243":-0.021870612634663795,"244":0.06587442228188266,"245":-0.026153279344096687,"246":0.10362547955047917,"247":-0.06100361820844634,"248":-0.22766221536181058,"249":-0.20311016997533637,"250":-0.19359362961055332,"251":-0.02099732180622161,"252":0.12446797109970166,"253":0.05723843766205999,"254":0.07646726728247279,"255":0.019986853642957627,"256":0.1943433313978809,"257":-0.207249265173149,"258":-0.16350496446971016,"259":-0.18518500254490544,"260":-0.05384727723132184,"261":-0.11053771342051581,"262":0.0016955633493482827,"263":-0.18438285560114365,"264":0.012299877091984525,"265":-0.014925573279472078,"266":0.039220395318837795,"267":-0.12388453277606999,"268":0.12588676343320557,"269":-0.08020780511002862,"270":-0.038876702721586276,"271":-0.115547993252692,"272":0.06068174096817145,"273":-0.060133311072813646,"274":0.14311939170828053,"275":0.0604009015414437,"276":-0.19467744629556152,"277":-0.05878625613886548,"278":-0.15377995812817155,"279":-0.11025977913905405,"280":0.17167498155752134,"281":0.12814456858569429,"282":-0.006400429610356961,"283":0.03175571536263206,"284":-0.11610580086011597,"285":0.103021051317139,"286":-0.03171171873417018,"287":0.03391627613043112,"288":0.11514951827245692,"289":0.2233510558592404,"290":0.21123885415913432,"291":0.026740424455697038,"292":0.2436318131672716,"293":0.0487343835403917,"294":-0.12431819430814757,"295":0.0948676479143893,"296":0.030539951449854736,"297":-0.12292905605700676,"298":0.03594388930722828,"299":0.1408777495461973,"300":0.11384673172997672,"301":0.019655868323463725,"302":0.0630278890552721,"303":-0.0076721488139172905,"304":-0.0025859721115365315,"305":0.1751892498631484,"306":0.20895868838085127,"307":-0.17769867336019138,"308":-0.11275796440569566,"309":0.24129856090937782,"310":-0.05047807912281956,"311":-0.09406079426370186,"312":-0.03483834043162706,"313":-0.03554310160997176,"314":-0.15057181235119205,"315":0.016263954368777644,"316":0.20495553340847003,"317":-0.07948712486355376,"318":-0.15782669603589194,"319":0.10322696254168584,"320":0.1619481741808096,"321":0.13342968738195468,"322":-0.10830411670249444,"323":-0.09266282449608972,"324":-0.18480903373026233,"325":-0.09861808396302454,"326":0.1506795494524823,"327":-0.2444799067049439,"328":-0.3638131439377358,"329":-0.22171859398338126,"330":-0.05348662893485229,"331":0.01724154176094789,"332":-0.06719672715808174,"333":0.0013844479363756806,"334":0.16207469207945946,"335":0.04205743808252119,"336":-0.19156950046501636,"337":-0.04018884152083453,"338":-0.029873166050295746,"339":0.16957604420465236,"340":-0.043220878659777834,"341":-0.12012711671743741,"342":-0.18109776306837785,"343":-0.1967879174676311,"344":0.009596733006738698,"345":0.10009595229066763,"346":0.16924594559270725,"347":-0.21499723593192482,"348":0.025522250496147023,"349":-0.21404493607747918,"350":-0.13345269723007344,"351":0.11593753496110995,"352":0.12564559817422458,"353":-0.10061713051520421,"354":0.018465181316568137,"355":-0.13471148192606888,"356":0.026327396612441233,"357":0.13005738421539495,"358":-0.1703301854719373,"359":-0.1501739134188669,"360":0.04682550049623498,"361":0.17547416694014292,"362":0.1527358473356242,"363":0.08404650436739516,"364":0.19402409482731,"365":-0.1426860785198374,"366":0.06806249419773389}},"2":{"bias":-0.14384671937255866,"weights":{"0":-0.008578855311790829,"1":0.11143328565482387,"2":0.044624625200805644,"3":0.08038573099173364,"4":0.055848782333788906,"5":0.13142140941649438,"6":-0.09210961533539111,"7":-0.1646969851610811,"8":-0.08575378767150006,"9":-0.14679196452643875,"10":-0.15275337563525634,"11":0.044205567960714086,"12":0.07308063198692244,"13":0.05180099703776477,"14":-0.2576128055822194,"15":-0.007606073533258118,"16":0.18409896126550293,"17":0.08671262389677037,"18":-0.0860437371112004,"19":0.16895917568592472,"20":-0.03676006337782611,"21":0.14630402441181847,"22":0.038620931764616874,"23":0.20080231385797995,"24":0.018165537057974777,"25":0.10343825522016147,"26":-0.015634739974929885,"27":-0.12652143297035917,"28":0.13861410514034378,"29":0.06593755009518354,"30":-0.06195191766985649,"31":0.10966994191734414,"32":0.07503710622821122,"33":-0.19796390203976336,"34":-0.04520010543072366,"35":-0.03574492658452315,"36":0.1378230898487194,"37":-0.17320732379066056,"38":0.04851553333514985,"39":-0.2193944246498724,"40":0.035355597676431434,"41":-0.03715041740481951,"42":0.16040494609214073,"43":0.07834778374515954,"44":-0.025049326581773026,"45":0.016495464976660233,"46":0.20328364372053617,"47":-0.14423958302979714,"48":0.10971243637933172,"49":0.10315419110477818,"50":0.0846516951690957,"51":0.15050302918773636,"52":0.008544382304684817,"53":-0.0225632938032572,"54":-0.15164330289244055,"55":-0.07377000975946177,"56":-0.14027302834884497,"57":-0.08764652899607123,"58":-0.05463249760756522,"59":0.18006786529137297,"60":0.12722263859783103,"61":0.16683611904119788,"62":0.22429945420029693,"63":0.12295661238054302,"64":0.2035465179679818,"65":-0.1525350962591246,"66":-0.09246337112952563,"67":-0.07889932310311963,"68":0.12348696565205318,"69":0.025747026245644573,"70":-0.023303057926258808,"71":-0.13355915457876918,"72":0.024107825109168514,"73":0.10949099352444708,"74":-0.16996790314069637,"75":-0.1745462771944063,"76":0.10443146325231502,"77":-0.13162770790418538,"78":0.0012044241505867045,"79":0.03672553189770128,"80":0.03411199118139293,"81":-0.1430686579231627,"82":0.08440508454659518,"83":0.02831950900928462,"84":0.12813638229308266,"85":0.23606465454075282,"86":0.14397136549916853,"87":0.15185489667724775,"88":-0.17182403432479046,"89":-0.09999661858322835,"90":0.1870262241681635,"91":-0.1407703752951766,"92":0.18014735706526874,"93":0.16860774216732272,"94":0.057660346130217956,"95":0.25166060407741064,"96":-0.19715532553936058,"97":-0.16086263791940883,"98":0.15585572477569912,"99":0.15756407507481876,"100":-0.08865401590115665,"101":0.002131788751284682,"102":-0.012482700580239734,"103":0.2026492749526681,"104":0.01061998983496196,"105":-0.1379836264667714,"106":0.014344390952417187,"107":-0.2154205974999404,"108":-0.0640307189334008,"109":-0.057997753107907245,"110":-0.12577691851960462,"111":-0.08084763924627004,"112":-0.23722534080285634,"113":-0.1365778844933033,"114":0.08034612320727312,"115":-0.08102359133964254,"116":-0.08316972392551492,"117":-0.007242736276645844,"118":-0.1007622872857277,"119":-0.05830121097931699,"120":0.01635099196625874,"121":-0.16104810159231095,"122":0.09301041656082702,"123":-0.09586662168565797,"124":-0.06077818619250585,"125":-0.16903870633647522,"126":0.10292003897871277,"127":0.0765677638371554,"128":-0.10303021821202947,"129":0.0620614278924297,"130":0.16674216504182943,"131":0.11949350568575749,"132":-0.020379321577066435,"133":0.07184285270099876,"134":0.02547205665485563,"135":-0.2150144856494135,"136":0.014122793039729192,"137":-0.11313742527631165,"138":0.16888053726423793,"139":-0.13138926203955126,"140":-0.045025765666619755,"141":0.048378277249270636,"142":-0.11729498298446464,"143":-0.13819685633171958,"144":0.09848800739019971,"145":-0.054837584043341686,"146":0.1431509543244933,"147":-0.16675171111143175,"148":-0.012264535787219366,"149":-0.15799608961109454,"150":0.12432810708620468,"151":-0.10416120664953742,"152":-0.177715299622791,"153":-0.0956774982915468,"154":0.14951708113404205,"155":-0.04103927009376595,"156":0.11717942418417031,"157":0.013558044373592083,"158":0.15189806871265715,"159":0.07182529554241256,"160":0.10160648384890701,"161":0.01061271935107571,"162":0.07060243745442432,"163":-0.17833551482709478,"164":-0.10847402216443602,"165":0.03882965031309634,"166":0.10593403569060549,"167":0.07165746858117741,"168":-0.019234792661828516,"169":0.16455780587240595,"170":0.04172426006584751,"171":0.1290337348217316,"172":0.18479864017729786,"173":0.07122017110582443,"174":-0.20508124298898492,"175":0.06293522670153809,"176":-0.10840584924066655,"177":-0.160255815037643,"178":0.15136643111684367,"179":-0.014336026688965128,"180":0.09621883676128525,"181":0.053162146432410094,"182":0.0807389442550538,"183":-0.06591878286273128,"184":-0.053635180494089406,"185":-0.10764694695770036,"186":0.077941724277397,"187":-0.12380101758541671,"188":-0.06412984727862227,"189":-0.07243997291204665,"190":-0.02385133968520874,"191":-0.11617395124818743,"192":-0.07642606929130073,"193":-0.00034428748032414074,"194":0.015847269563118004,"195":-0.0752596873816925,"196":0.12426699321428315,"197":0.19169565542157463,"198":-0.00041210771970281947,"199":-0.11835518921660636,"200":-0.11383729075468066,"201":0.06632229478894532,"202":0.1153015069273798,"203":-0.06413181077518094,"204":0.16617167723220008,"205":0.038202066341105526,"206":0.009387469937611626,"207":0.09704052846056066,"208":0.20645016138870514,"209":0.03448309284412553,"210":0.048938858162432305,"211":-0.002606005923869282,"212":-0.1341619875415798,"213":0.2040437822446119,"214":0.14786092254391206,"215":-0.05955206139376161,"216":0.011722000347240838,"217":0.06388743961566867,"218":0.19045563213259983,"219":0.06558219958614264,"220":0.12366892615519585,"221":-0.17662615323765601,"222":-0.04931224987969997,"223":0.02539631908807159,"224":0.10645480771667343,"225":-0.05140019821687577,"226":-0.13987072565364858,"227":0.17743887792609186,"228":0.006178738528368759,"229":0.05248984073688035,"230":-0.19233357054861666,"231":-0.14475576140323118,"232":-0.10399479082646994,"233":-0.1898411917150735,"234":-0.1175012541970663,"235":0.07847268476863128,"236":-0.022390048222084635,"237":0.08218943562307221,"238":-0.014697600635388969,"239":0.17537362223249262,"240":0.1064039143197215,"241":-0.017257017174634324,"242":0.03292554128473425,"243":-0.0066697804192797725,"244":0.15077026745332378,"245":0.04524304537357672,"246":0.04527243464323617,"247":-0.13325108733184654,"248":-0.06452881582928206,"249":0.07521193197506837,"250":0.10021545414670974,"251":-0.08624921759834936,"252":0.19905708050268042,"253":0.1185705147762257,"254":0.10127253679053654,"255":0.007315550601117398,"256":0.10077511288661632,"257":0.0753923954055007,"258":-0.05644574425422719,"259":0.06298269299250149,"260":0.13656713221865377,"261":0.032771298094533656,"262":-0.155898363438409,"263":0.12835471222188463,"264":0.009584257782523963,"265":0.15835313517460578,"266":0.12222406372042383,"267":0.05401362904896042,"268":0.09707517593960682,"269":-0.147577711523332,"270":-0.058338405293352866,"271":-0.08810635316115414,"272":0.012597344310781052,"273":0.051833032076824194,"274":0.20251050575003474,"275":0.11830193675120777,"276":0.09843618295325358,"277":0.017800902954537557,"278":-0.09894678761305935,"279":0.06506469907938156,"280":-0.013812267629286308,"281":-0.05958250292552355,"282":-0.16845525438078085,"283":-0.011092752730301508,"284":-0.05486860898228569,"285":0.15209707832068625,"286":-0.1914634435553298,"287":0.1865220044637647,"288":-0.14732413264200625,"289":0.2406209036704036,"290":0.0701322188099937,"291":0.23642169928944748,"292":0.24134337431984612,"293":0.045193922867779214,"294":0.10521188666793173,"295":0.04711970914445533,"296":0.04363287767160378,"297":-0.009532718815602161,"298":0.06230464760410461,"299":0.1906405319491658,"300":-0.06193509569551246,"301":0.12020306882444028,"302":-0.13273475719180367,"303":0.13451358615859443,"304":0.1777374133608439,"305":-0.1878270377918759,"306":0.14579637398862097,"307":-0.15502988800303738,"308":-0.15645549897644767,"309":-0.23445965108564537,"310":0.007759362662354911,"311":-0.14166551688307752,"312":-0.12052969153795356,"313":-0.1884161258675291,"314":-0.07661113355304623,"315":-0.06830444248073761,"316":0.026917937721739435,"317":0.03863465687342069,"318":0.0859104139045128,"319":-0.19079090111482688,"320":-0.10827819333303836,"321":-0.1951260297685773,"322":-0.16017781954954405,"323":0.04836829223462009,"324":0.014857063394337343,"325":-0.0910470203882159,"326":0.16992974197443364,"327":0.022068514041697327,"328":0.19668477321287076,"329":-0.16149145412339896,"330":-0.13156388969851343,"331":-0.07439539836825926,"332":0.13235525773175985,"333":0.1795820538747905,"334":-0.14816451310974701,"335":0.0937611313952904,"336":-0.13307302482355682,"337":-0.04434152225700808,"338":-0.16262973339666964,"339":0.036465492539001096,"340":0.12740732409001546,"341":0.038063230190160016,"342":0.17044599479176517,"343":0.046281422254918006,"344":0.019699611812996707,"345":0.1346777331434957,"346":0.1032387554456552,"347":0.040014885510333824,"348":0.11648160077423803,"349":0.10655964422622266,"350":0.1167985683929919,"351":0.024188665413892793,"352":0.1337551234804053,"353":0.18906419467048716,"354":-0.13109397251626378,"355":0.04393567512228894,"356":-0.1692077239005235,"357":-0.1390243823315492,"358":0.1977680092040012,"359":-0.02957866336765871,"360":-0.08269432259195736,"361":-0.04280416773009202,"362":-0.20403022404714027,"363":-0.22196551282829974,"364":0.11137238568119649,"365":-0.2078853458297726,"366":-0.18602127428536525}},"3":{"bias":0.1042425856212117,"weights":{"0":-0.08113737603435742,"1":-0.09257323876750666,"2":0.20296715511489732,"3":0.08980586932737121,"4":0.16422255835627345,"5":0.02217752404346692,"6":0.017528839575513797,"7":-0.10696239829946409,"8":-0.11103588380318631,"9":0.013553153989891917,"10":-0.06061475023707927,"11":-0.0748982164545358,"12":-0.038180948001072176,"13":-0.018950427463095703,"14":-0.019125269220346814,"15":-0.05830606125520565,"16":-0.015486139699473388,"17":0.08398545663726568,"18":-0.1210795932472249,"19":-0.027346503873687814,"20":0.0005953306823632224,"21":-0.10435123266414371,"22":0.10885896452284263,"23":-0.053012501146554404,"24":-0.07994502889155808,"25":0.02989204483941196,"26":0.11919531685009835,"27":0.005763094223060593,"28":0.15916823325826499,"29":-0.15448163298967418,"30":0.0010963934927591778,"31":-0.05007813357400414,"32":0.020417806871187355,"33":0.045861774746245414,"34":0.035563431837294567,"35":-0.13015944092783918,"36":-0.22168232712524133,"37":0.08766685154438747,"38":-0.19506379404342686,"39":-0.15457957055455493,"40":-0.09890703957739862,"41":-0.062380034308853284,"42":-0.2503623873866205,"43":-0.015096974666748367,"44":0.19929186251958014,"45":-0.011190493292798701,"46":0.15993289245891745,"47":0.08032404300865953,"48":-0.21202840680998958,"49":0.02242084536806155,"50":-0.010841327764630692,"51":0.036125764630379066,"52":-0.2031347333168144,"53":-0.13227927956233856,"54":-0.08237094485682306,"55":0.18150944428981164,"56":0.11591897218241645,"57":-0.013417649917204377,"58":-0.020355345341274124,"59":0.06294586617651036,"60":-0.010881272808899722,"61":-0.2341338479811003,"62":-0.3125822352651368,"63":0.0708175748668226,"64":-0.017135169709660426,"65":-0.07490543068006698,"66":-0.10431194034329193,"67":0.1333736354167221,"68":-0.17066899006568342,"69":-0.012454549232297182,"70":0.17296147861699096,"71":-0.11746268999759071,"72":0.13300028435430256,"73":-0.13861441130821087,"74":-0.006940567472567897,"75":0.10183913125294397,"76":-0.0755946826224347,"77":-0.18858646545767002,"78":-0.16644860950346568,"79":-0.11606831775927699,"80":0.08990573138952933,"81":-0.16091693574349927,"82":0.051604452607615606,"83":-0.15237997435117603,"84":-0.17358166061479335,"85":-0.03841113126671838,"86":0.04394502777742744,"87":0.10443478497938373,"88":-0.09342390201054544,"89":-0.08001196896707231,"90":0.04691606426327042,"91":0.12190656627393152,"92":0.027773168035066586,"93":0.1557555586138616,"94":0.1282252972709486,"95":-0.148303510025672,"96":-0.16305954432167233,"97":-0.07480013536769854,"98":0.0180618324212596,"99":-0.13723145102794565,"100":-0.03198484742567064,"101":0.022952512039020607,"102":0.14367582612410135,"103":0.16107287074110616,"104":0.04915068486649198,"105":0.18744448374694192,"106":0.06391057489696668,"107":-0.050763170865762056,"108":0.1926898770637566,"109":0.158135386854165,"110":0.232507133639377,"111":-0.02794575061843829,"112":-0.12888757585200825,"113":0.17703428578106614,"114":-0.11512411745057087,"115":0.07263590723944928,"116":0.20340260894513032,"117":0.1976708225914112,"118":0.02019769551017887,"119":-0.13674758458871306,"120":0.09202197538506358,"121":-0.1105900667544594,"122":-0.02124319771328522,"123":0.1730620578098206,"124":-0.14916256399278183,"125":-0.09916595898359848,"126":-0.12641427698313118,"127":0.10207244769609415,"128":-0.04020951200731278,"129":-0.09569385526982245,"130":-0.04816518325877754,"131":0.08289162603041712,"132":-0.13956338409108343,"133":0.1701481939967191,"134":-0.002789365300835351,"135":0.171053285174264,"136":0.17515239551404682,"137":-0.12456186735503297,"138":-0.029099789213163838,"139":-0.007713046270632639,"140":0.20845150398360332,"141":-0.17509078833939662,"142":0.20350463286551695,"143":-0.08744961143371438,"144":0.08698972258402622,"145":-0.1807805371488484,"146":-0.10109027517581523,"147":-0.046445951793628246,"148":-0.0888209459456178,"149":0.10200404701072809,"150":-0.17936301389824807,"151":-0.04656111479840617,"152":0.14744025085748422,"153":-0.07258481922900478,"154":-0.0042664315828209445,"155":-0.20807757398495985,"156":-0.03265572941638517,"157":-0.1157868709325671,"158":-0.0785465119545896,"159":0.07230379614543513,"160":-0.14723619482722902,"161":0.1764803491530648,"162":-0.12467914398126821,"163":0.10567756227923723,"164":-0.24332529774305872,"165":-0.06369887496094588,"166":0.02229084718629065,"167":-0.17250698906713066,"168":-0.08741900224833163,"169":-0.07353212904375586,"170":0.10446372958247904,"171":0.03457492693485757,"172":-0.00808898612726119,"173":-0.0164480240936865,"174":-0.1501040307024434,"175":0.1265027539320247,"176":-0.16214943730376355,"177":0.030509796188963614,"178":-0.13237152894120255,"179":0.06242907444132814,"180":0.12559351990504206,"181":0.10688219220548588,"182":0.05953583714186814,"183":-0.1693967228377765,"184":0.08544633318509985,"185":0.1444493016937212,"186":-0.030619628790055604,"187":0.002695779260203924,"188":-0.018862998738038355,"189":0.07321756170703025,"190":0.050653375108655654,"191":-0.015255917836681496,"192":0.06713131744326616,"193":-0.1147441035714037,"194":0.06458051326441482,"195":-0.21037941934808524,"196":-0.17074537773809886,"197":-0.1329539408730029,"198":0.013719419068484999,"199":-0.1133811743279557,"200":-0.01325106078087553,"201":0.021823893495705498,"202":-0.13963583919856934,"203":-0.03131067199343326,"204":0.12466986432410694,"205":-0.04584073433084845,"206":0.25932654249153725,"207":0.2784007548924596,"208":0.0600021752801853,"209":-0.006578371684180962,"210":-0.1920178165109959,"211":0.16050092673902547,"212":0.13154707776983704,"213":0.11419978074767193,"214":-0.1648509797061186,"215":-0.13652288262919712,"216":0.0523188281510634,"217":0.031258819212913166,"218":0.14139398339831963,"219":-0.13032632129285363,"220":0.06062867387470425,"221":-0.04554405595470065,"222":0.09227985533429096,"223":0.09659186535605165,"224":-0.010258915529097145,"225":-0.09856171952173781,"226":0.1130880689889217,"227":0.04952049722954255,"228":-0.18614622649027668,"229":0.1560993185486177,"230":0.01586900473596906,"231":0.155095236855252,"232":-0.15334092683623898,"233":0.16878844382640512,"234":-0.0013098785969620412,"235":0.006450354238675155,"236":-0.06406801484646481,"237":0.06582565096920659,"238":0.12873373597210558,"239":0.03131511582671487,"240":-0.005675687171829642,"241":0.10225695651088566,"242":0.008465858104119813,"243":-0.14510525329226506,"244":0.14947218497893267,"245":0.05134389616644093,"246":-0.07262715764266535,"247":-0.1507256652301641,"248":-0.18055266807467404,"249":0.05166084949103221,"250":-0.15447199165769865,"251":0.10362119849751136,"252":-0.06932928526484225,"253":-0.015890806345824966,"254":0.04542876577264957,"255":0.15968007883365015,"256":-0.06379985084361546,"257":-0.06938221060350265,"258":-0.13276792902552803,"259":-0.11896238307395997,"260":0.12264378533465518,"261":0.087791663579507,"262":-0.052323773387517376,"263":-0.028583112186295185,"264":-0.036180864507335236,"265":0.034633231226348205,"266":-0.10827643216194612,"267":0.041554014279865464,"268":0.05153750128107201,"269":-0.16675190414959973,"270":0.09215537981174615,"271":-0.07661530336530385,"272":0.09193723065481325,"273":0.07297118360791921,"274":0.026147792828209553,"275":0.09511743875503892,"276":-0.13517072784100914,"277":0.021955570055716397,"278":0.13190406642038022,"279":-0.15360345397550948,"280":0.07953127572557053,"281":-0.1860651171712157,"282":-0.1907765174106461,"283":0.13724407960662194,"284":0.07249936458644804,"285":0.18301654876275436,"286":-0.02237847161813836,"287":0.048269021617817626,"288":-0.1869320579789608,"289":-0.1760990625658644,"290":0.13822824772708678,"291":-0.16112617749888394,"292":0.014217625875271188,"293":0.16300483564017285,"294":0.12960728256033077,"295":0.11013532172919999,"296":0.06741312453812966,"297":-0.1546765764657517,"298":-0.08142329473456972,"299":0.11694837741287177,"300":-0.10457098714206156,"301":-0.054285423224706184,"302":0.08669959419592582,"303":-0.18660586459475711,"304":0.0010551996638934753,"305":0.03619690641046898,"306":-0.09499921766805663,"307":-0.14755692992630018,"308":0.21458142497790852,"309":-0.005906242091974322,"310":0.13111443729288946,"311":0.11864127747938205,"312":0.15494763444443016,"313":0.1308713900710552,"314":0.09410170502850489,"315":-0.09296252561472486,"316":0.23800772519686073,"317":0.18789554219517443,"318":-0.14140408273608626,"319":0.07399411670579611,"320":-0.00846540249584246,"321":-0.061296282708199784,"322":0.07140997062912895,"323":0.002665782235724644,"324":0.0669686137949609,"325":0.200542072078078,"326":-0.13059580475856813,"327":-0.12280376269029755,"328":-0.005850449353162417,"329":0.012196611313950993,"330":-0.1447166331651722,"331":0.1642642487866073,"332":0.1375363733281225,"333":-0.11123972252391891,"334":0.00705178120724656,"335":-0.15266028391896186,"336":-0.15125779308209059,"337":-0.10423457803412063,"338":-0.002664502746449635,"339":0.10851934723761998,"340":-0.10015377250378395,"341":0.07959303751256426,"342":-0.037061924371262246,"343":-0.16174962082389807,"344":0.10792204263584461,"345":-0.13407565550128073,"346":0.16628835094469377,"347":-0.18908592738581423,"348":0.1291920255760303,"349":-0.0860614090653225,"350":-0.015975003450430094,"351":-0.17838306106406812,"352":-0.17283442120839124,"353":-0.08050233785065664,"354":0.0420185478178362,"355":-0.12219719362354903,"356":0.17555148747267185,"357":-0.13383610324866912,"358":0.040191059788199965,"359":-0.03535222705114927,"360":0.1012929450758744,"361":-0.06180202417208769,"362":-0.07191115733468945,"363":-0.05320327074259565,"364":0.02149220373678939,"365":0.16829459504829797,"366":-0.08620071858068575}},"4":{"bias":-0.12969329753070039,"weights":{"0":0.12874913883233027,"1":-0.13383820838400218,"2":0.12996925232968828,"3":0.17557693152243645,"4":0.16895020244158226,"5":-0.06907094469444501,"6":0.17981938137961623,"7":-0.1937989559947277,"8":-0.17177574888070923,"9":0.1067808872056553,"10":-0.09423664631535407,"11":0.22073029776845154,"12":-0.1063419511735738,"13":0.07495933100400802,"14":-0.16602221716178506,"15":0.19371339841508772,"16":0.14935874890843084,"17":-0.10453794533439893,"18":-0.06782547550498509,"19":-0.0849258477904704,"20":0.10529245908701289,"21":0.00942983329919214,"22":0.14903901922005533,"23":-0.11234169361392399,"24":-0.08797906184531365,"25":0.16312641085323026,"26":-0.1494320875297866,"27":-0.1624761597978089,"28":0.19819034891937065,"29":-0.11023311871460417,"30":-0.02124319710117882,"31":-0.19322693225132104,"32":0.03326082874778063,"33":-0.022265816525534922,"34":-0.14310664437753123,"35":0.056320503060102216,"36":0.1320895606945639,"37":-0.12946880335842456,"38":-0.0696944092257205,"39":-0.11258511369627433,"40":-0.07764544726910734,"41":-0.17589141079786208,"42":-0.13385585204585013,"43":-0.19561343942332254,"44":-0.09054148399245499,"45":-0.0690415820080035,"46":0.06630064170369326,"47":0.028413963809254955,"48":0.12258441253356175,"49":0.17368452684724986,"50":-0.1603052732894059,"51":0.11498138128473624,"52":-0.13428758679698122,"53":0.014468478660452878,"54":0.11137310538977775,"55":-0.17405133324954097,"56":-0.19127259711659492,"57":0.01137240420876091,"58":-0.049300106103955604,"59":0.039422253858146315,"60":0.025529868342793242,"61":0.14321819275839168,"62":0.005946219354102049,"63":-0.1350954282036159,"64":0.024691491640500454,"65":-0.03327219271765605,"66":0.12876815494925128,"67":-0.10456782569697355,"68":0.04723770338865303,"69":-0.07648775410326135,"70":-0.12735117866660187,"71":-0.1332070777216479,"72":-0.01851648478810492,"73":0.019438800984421467,"74":0.07476371019157414,"75":0.0066216353108915675,"76":0.03657992072269096,"77":-0.17784986292861443,"78":0.08619330011201634,"79":0.06778021223952142,"80":-0.1416824461480119,"81":0.16790038535104787,"82":0.11672103068792981,"83":0.08557802615723754,"84":0.021849408005029165,"85":-0.11465684602416044,"86":-0.19056732238932372,"87":-0.029795107855278904,"88":-0.01032840126006455,"89":0.09884458067807542,"90":-0.2000368217685117,"91":-0.10294652890327535,"92":-0.0014988798925656664,"93":-0.05944301426207167,"94":0.050433197288889176,"95":-0.13501113633326822,"96":-0.006158300431347119,"97":-0.0462121505282094,"98":-0.019970821505626842,"99":0.11362022438128364,"100":-0.09011746927226913,"101":0.14162261278193558,"102":0.05004336598014389,"103":-0.09674243969705615,"104":-0.19732269688966875,"105":0.12010616811924846,"106":0.05787644985708147,"107":-0.06143580302141541,"108":0.21657341861022938,"109":-0.13536680338548926,"110":0.23237506998503488,"111":-0.08214955852101784,"112":0.20780047152356956,"113":0.24593482379949186,"114":0.19966736813302452,"115":0.003932973845384319,"116":0.1885660508865063,"117":0.02208939258408958,"118":0.1689700752287165,"119":0.11857517028674017,"120":0.15710629801642323,"121":-0.01701579407589611,"122":-0.11244106837792243,"123":-0.005557960442978906,"124":-0.026558489409757833,"125":-0.13240952233463246,"126":-0.037470344370662545,"127":-0.0931461655146492,"128":-0.02836823958896353,"129":0.15885530121393374,"130":-0.06668309909672225,"131":0.05461428792658158,"132":0.14921489811256738,"133":0.08972739648310933,"134":0.20295510052277124,"135":0.11994770759443757,"136":-0.14873354129501248,"137":-0.1732616176410492,"138":-0.08719814887780858,"139":0.18589527511307383,"140":0.21539880189473468,"141":0.1505085221768771,"142":-0.15571180546912539,"143":0.16984494106172776,"144":-0.1800916497564034,"145":-0.05322329744805901,"146":-0.06228750800904544,"147":-0.041422293888715774,"148":0.05789960007837429,"149":-0.1606942766935911,"150":0.06873614194415968,"151":0.06975471572502669,"152":0.15730791830501661,"153":-0.018088094920395065,"154":-0.19173347615310646,"155":-0.09381739689004619,"156":-0.06917127069305419,"157":-0.14985902616761737,"158":0.024600204205694195,"159":-0.10577585339807766,"160":-0.1227350095886806,"161":-0.18466727654647927,"162":-0.11581570735425092,"163":-0.26149360507039016,"164":-0.014205893866397054,"165":0.15049102083527746,"166":0.07706677979984651,"167":-0.1369072063227463,"168":0.052016129525040936,"169":-0.16783737474826654,"170":-0.07854156758703847,"171":-0.11338279383776767,"172":-0.06422532976308473,"173":-0.08541642348713353,"174":0.18750269456989554,"175":0.14867331329590183,"176":-0.16331378705733604,"177":-0.018420731165751093,"178":-0.09727678563772808,"179":-0.1394598240650083,"180":-0.15019826642010564,"181":0.02387922876948304,"182":0.10088333556909918,"183":-0.1812306431616826,"184":-0.14153176150003496,"185":-0.1405466481683105,"186":-0.004536493858490313,"187":-0.022471561070533993,"188":-0.04575268082897557,"189":-0.07783930103414093,"190":-0.10819596662515557,"191":0.13123056298101068,"192":-0.12993969756916218,"193":-0.11858072467307323,"194":0.14343504538745203,"195":-0.1860757874455924,"196":-0.15187877376710002,"197":0.05852079267407766,"198":0.14170597326317594,"199":0.14463749726145,"200":-0.0013642668965821363,"201":-0.11503173344282375,"202":-0.04484309658005747,"203":0.07106748046087856,"204":0.160011773534435,"205":0.23178922190795012,"206":-0.12068473122682935,"207":-0.051718073206192365,"208":-0.20944930267201287,"209":-0.11329892802607514,"210":0.19337524207766785,"211":-0.009554819569091433,"212":-0.1543561694224864,"213":0.020797095519082227,"214":0.08850154722228021,"215":0.06406379432985088,"216":-0.006100191910041637,"217":-0.11577910237181094,"218":0.0019400339672989999,"219":-0.1269661921512347,"220":-0.06429147785639235,"221":0.13988837253606443,"222":-0.01111542526033826,"223":-0.12295636110278126,"224":-0.18345588909414523,"225":0.05421133509321236,"226":-0.08687560842259538,"227":0.09533675840165845,"228":0.20038043834417346,"229":0.1133579416750165,"230":-0.04024814734931092,"231":-0.12058832232447199,"232":-0.08714746317707256,"233":-0.18835216023865925,"234":0.16487093818393955,"235":-0.14978916332428993,"236":-0.09081838960764516,"237":-0.04297394916524519,"238":-0.019951472576687487,"239":-0.032647730088708624,"240":-0.10646157262917114,"241":0.08374473062790538,"242":0.13271197986717986,"243":-0.05171713283990848,"244":-0.11328422202205896,"245":-0.0743504067693751,"246":0.06718187077279847,"247":0.07599077268351875,"248":-0.19362447403069113,"249":-0.07435681744108806,"250":-0.0323476171412007,"251":0.08416232377007843,"252":-0.16297399675647514,"253":0.08935789261677546,"254":-0.17778702111074388,"255":0.19513934964555812,"256":-0.10161465712139034,"257":-0.13993805480827498,"258":0.08460702259955867,"259":-0.13212606333458157,"260":0.0887656368374792,"261":-0.08282441942386878,"262":-0.011918105100637521,"263":-0.053615973091020355,"264":-0.16914073059911464,"265":0.048380448426854586,"266":0.1331858947262556,"267":-0.17726921142105098,"268":0.19716349138867592,"269":0.13867948041073033,"270":-0.17015515861463237,"271":0.12356946050953063,"272":0.06637516289474606,"273":-0.18137301706894476,"274":0.18779276465473033,"275":0.13146511935061286,"276":-0.1111140086148559,"277":0.09205835785935837,"278":-0.05136250419460644,"279":0.12788234124095862,"280":-0.03355821080349187,"281":0.003591012401684372,"282":-0.07137041051047592,"283":-0.08847775442427973,"284":-0.06785947200424021,"285":-0.06578128623662344,"286":-0.1653303182684331,"287":-0.011510793435337587,"288":-0.12464212898704653,"289":-0.2026267371240752,"290":-0.012844443334911545,"291":-0.02399290174576215,"292":0.09197714704506652,"293":-0.12791384321270519,"294":-0.18053088556929073,"295":0.012181727712104129,"296":0.15744852089064967,"297":0.1255957521317894,"298":-0.07848158455528281,"299":0.002857181246441091,"300":-0.06284797458342871,"301":-0.13364927210509955,"302":-0.17268199815483304,"303":-0.10351286189643931,"304":-0.05800432958729599,"305":0.0728918106721622,"306":0.03267794679279076,"307":-0.07220060170843758,"308":0.02686638721044158,"309":0.1808328663799139,"310":-0.09575571735350046,"311":0.20912116074338064,"312":0.03488456833267521,"313":0.07168293730630568,"314":-0.050204715984638555,"315":0.15200025611084916,"316":-0.0451998285842562,"317":0.19718578716636168,"318":0.19511751328505209,"319":0.03581607773467651,"320":0.034044272528635545,"321":0.08261906780214251,"322":-0.14303009093161417,"323":-0.09270283066503036,"324":0.17554062204731605,"325":0.08351358258524477,"326":0.17628316338726058,"327":-0.027270402005718276,"328":-0.09126897139410273,"329":-0.24216888375047724,"330":-0.1891453916908934,"331":-0.005722779374991727,"332":0.024951283262321818,"333":0.05783067398180281,"334":0.09840381141428876,"335":0.07290635556844775,"336":0.04072309728608713,"337":-0.0066822248964752045,"338":0.1204459395309997,"339":0.10126666055578844,"340":0.19666191700773614,"341":0.1025830200985965,"342":-0.17581650426628098,"343":-0.1783781181924091,"344":0.03967131474655574,"345":-0.1040366193490951,"346":-0.06813040152465256,"347":-0.12780030487395985,"348":-0.03793136101089765,"349":-0.07043107677775237,"350":0.027534483234556806,"351":0.12203667558624372,"352":0.18491534900201914,"353":-0.11629058786910954,"354":0.05139388160631421,"355":0.031118224521617083,"356":0.04455629915707206,"357":-0.09066427245763889,"358":-0.1372358131214313,"359":-0.09656547884433093,"360":-0.030972989207958896,"361":-0.04215472744406036,"362":0.046411569483418805,"363":-0.10336582154061555,"364":0.018767720083943392,"365":0.2210099722159633,"366":0.058967137842887686}},"5":{"bias":0.05691642338241881,"weights":{"0":-0.13613091200138802,"1":0.1541809575864312,"2":0.10608826849296288,"3":-0.14366508407516818,"4":-0.059603127085231876,"5":-0.08155042662431185,"6":0.010378487536366457,"7":0.13149600132456166,"8":0.09958250125196495,"9":-0.11703951033954015,"10":-0.16137318707935736,"11":0.11601115491249134,"12":-0.2685846430356771,"13":-0.11101652134631936,"14":-0.03764147847445096,"15":0.20749300196197323,"16":0.070691574085015,"17":-0.036001975312806044,"18":0.033583714474071415,"19":0.12153347420453288,"20":-0.13112610324832047,"21":0.05382638946476142,"22":0.05185013053092177,"23":-0.07977188020522014,"24":0.02297425158967977,"25":0.02773608939500424,"26":-0.05638930323249438,"27":0.21369805060881078,"28":-0.12749833495371338,"29":0.11562852662639864,"30":0.2065660868364802,"31":-0.22730594511468769,"32":-0.05272597623878947,"33":-0.056994635650254144,"34":0.150682424719485,"35":0.018389262449328477,"36":-0.10637545012433026,"37":0.17416703658105914,"38":-0.10946014787893243,"39":-0.014220865487851155,"40":0.16791942775952712,"41":-0.0943929613015142,"42":-0.11926261105865378,"43":0.009059196800633867,"44":0.14586533797313506,"45":0.12088646786249765,"46":0.03342810378222116,"47":0.19808826894427795,"48":-0.08278449164461942,"49":-0.027338732806254748,"50":-0.016045173985164852,"51":-0.08660476762776734,"52":-0.18667790982239466,"53":-0.04432888991167702,"54":0.08689991073147606,"55":-0.214572847086793,"56":-0.08814441117586055,"57":-0.007337866510435478,"58":-0.1520172585232683,"59":0.0661549105709652,"60":-0.0005434030346717389,"61":-0.26178173327956233,"62":-0.043970483379751985,"63":-0.11882649407563774,"64":-0.13113514925626762,"65":-0.1383960158966549,"66":0.16574283095007367,"67":0.14872285941728056,"68":0.07628946321607229,"69":-0.05714439146086425,"70":0.032126654466973575,"71":-0.07736264733600012,"72":-0.04306739704269366,"73":0.19167561815366188,"74":0.19103697813238246,"75":-0.11316883288526197,"76":-0.13662300932879806,"77":-0.004112804863244366,"78":0.12686152708511025,"79":-0.03905339155466623,"80":-0.1454362536460315,"81":-0.11068385124598115,"82":-0.10844968522430337,"83":0.011731761940983024,"84":-0.10800451715841067,"85":-0.09587139802762484,"86":-0.1824822087798607,"87":-0.0894371796192368,"88":0.15020397436658608,"89":0.1640209415518551,"90":-0.12905283572987303,"91":-0.12082314781454143,"92":-0.08158198581026839,"93":-0.10330445844621891,"94":0.12497005783235614,"95":-0.12879479304235694,"96":-0.14456328112488118,"97":-0.1381565182695224,"98":-0.08151112966491156,"99":-0.014917405627964155,"100":-0.1887224809205303,"101":-0.10786610984366121,"102":-0.13008875990797134,"103":-0.026181853168709857,"104":-0.02812780814297847,"105":0.1478180748731076,"106":-0.02762499222530737,"107":-0.10593945159758239,"108":0.3009283465229806,"109":0.1896034663146287,"110":-0.11266502967170877,"111":0.16382104664569783,"112":0.14599958945848282,"113":0.1043145178165647,"114":0.05753460797223847,"115":-0.03735742035715442,"116":0.19393043630749138,"117":-0.08326775504166256,"118":0.22743213093981454,"119":-0.02084158055164235,"120":-0.07996599010488441,"121":-0.051622570649782026,"122":-0.0865564952228948,"123":0.2080774608009617,"124":0.1361236871663329,"125":-0.016474757941714224,"126":0.13781828933270618,"127":0.20883499642954875,"128":-0.06882035577993201,"129":0.15568036062856602,"130":0.13701023867596215,"131":-0.05197894124476564,"132":-0.01821287405199801,"133":0.11462735703404527,"134":0.2065902404998985,"135":-0.09124144603080007,"136":0.16055345283821904,"137":0.2059980448621645,"138":-0.09327798309016484,"139":0.01035365852582324,"140":-0.11078912031879491,"141":0.16369090599977792,"142":-0.010043419851877218,"143":0.013512563735001336,"144":0.17755800708211097,"145":0.050978663025282804,"146":0.0683905718003767,"147":-0.10549532060018199,"148":-0.022376499168398404,"149":0.04568891226934356,"150":-0.19811373147797184,"151":-0.008099790868814181,"152":-0.14986573146301452,"153":-0.01756065538611638,"154":-0.1273091234524072,"155":0.00002257782224858138,"156":-0.16168956592355316,"157":-0.19986260013106205,"158":-0.038497384184397576,"159":-0.01099244575648765,"160":0.10384658849150746,"161":-0.002816306062031541,"162":-0.21148314711168417,"163":-0.2572819773992709,"164":-0.18491328842365556,"165":0.15978243525441743,"166":-0.1757776322871966,"167":0.13940663555039556,"168":-0.07442097418812244,"169":-0.005341668216832423,"170":0.029187857327401347,"171":0.09642945868002313,"172":0.06438664123015145,"173":-0.13016913029147575,"174":0.09280855111724097,"175":0.0874251696319347,"176":0.040656706290020495,"177":0.04999541537821253,"178":-0.15908940376227185,"179":-0.19515891776461772,"180":-0.032405201143188775,"181":-0.04524187295390679,"182":-0.0891980369500076,"183":0.06302065395469683,"184":-0.06715333691324792,"185":-0.09722092876929647,"186":0.046097248486123246,"187":-0.0443339655354016,"188":0.13384970923192904,"189":-0.223281700631518,"190":0.08829616212047234,"191":-0.07134089893460993,"192":-0.12623482978574008,"193":-0.1037054409613911,"194":-0.13070731216176848,"195":-0.07888061903474936,"196":-0.13968506168372372,"197":0.10161963194151921,"198":-0.11197216398488069,"199":0.10138913788655599,"200":-0.17955750015941888,"201":0.00647954612794481,"202":0.027798606409633296,"203":-0.06988100327766876,"204":0.1937279410324077,"205":-0.07846069016092297,"206":0.039562433160944425,"207":0.16227910598325426,"208":0.06463761632384775,"209":0.17122228860713673,"210":-0.11782551083560548,"211":0.06282031222002606,"212":0.10714525841934028,"213":0.02690138852371599,"214":0.147890382216952,"215":-0.11042382507118108,"216":0.16291536017245645,"217":-0.09642074801161797,"218":-0.10887008378018244,"219":-0.14811892441116373,"220":0.03956724328615195,"221":-0.20947133073912289,"222":-0.1106110583170392,"223":-0.14791438772201937,"224":0.18782038417402258,"225":-0.06918728171593043,"226":0.16664499069776148,"227":0.12438750596590438,"228":0.13715343779388672,"229":-0.09245018210540555,"230":0.018563599640212463,"231":0.14360087604531285,"232":0.06371622392181911,"233":-0.1793379872105849,"234":0.04030385364969584,"235":0.11071319248351885,"236":-0.08155862805867585,"237":0.05413572907269889,"238":0.09921936061267689,"239":-0.15555871141961855,"240":0.10870610020966909,"241":0.05138750678061178,"242":-0.012595635608970271,"243":-0.17621444929235894,"244":-0.1919779883391754,"245":0.011890301499609582,"246":0.1796002288238723,"247":0.03889186110815758,"248":0.1470249834402875,"249":-0.06084173259224024,"250":0.036313313216360804,"251":-0.08137818315608851,"252":0.1032451909070573,"253":0.031187372993278815,"254":-0.14609362588033695,"255":-0.0998265676721413,"256":-0.028342719348161467,"257":-0.1228130597703482,"258":-0.0314987949602268,"259":0.14763287760116636,"260":-0.17347771099789613,"261":-0.03643075397484465,"262":-0.1561510340969636,"263":-0.027970010799838237,"264":-0.11944099794177594,"265":0.12650046011181254,"266":-0.21877316023730797,"267":-0.06488206547495627,"268":0.1500581934885647,"269":0.17844850905449489,"270":0.09678575438439528,"271":-0.16722387653661824,"272":0.09978807680334613,"273":-0.19628266952738793,"274":-0.08849377898278046,"275":0.016270355994343025,"276":-0.1572300866881503,"277":-0.10274723065905982,"278":-0.07529977785972898,"279":-0.0003806637080925906,"280":-0.09856284488539542,"281":-0.11485334284140508,"282":0.15723176174807332,"283":-0.10332174754793406,"284":0.15524891364687757,"285":-0.15657879160790147,"286":0.050884521160424336,"287":-0.08967471662323596,"288":-0.05149902749159841,"289":-0.10162438125915987,"290":0.09770006242363927,"291":-0.13495403897782973,"292":0.08130151663798128,"293":0.13615830268926746,"294":-0.17829281420038576,"295":-0.13716126277395368,"296":-0.22546660232355115,"297":0.11185035879192033,"298":-0.2031246033136333,"299":0.06329133299964573,"300":0.015898037336218314,"301":0.03198812898091792,"302":-0.1264547218045096,"303":-0.1812244494910164,"304":-0.11621436963867614,"305":-0.012602800646548241,"306":0.1747012054108479,"307":0.01730663557450975,"308":0.19862748934381877,"309":-0.0178446728746086,"310":-0.031254103338352116,"311":0.21431722284955126,"312":0.055637241392206924,"313":-0.038118100000125624,"314":0.2507854671270464,"315":-0.12423891492701616,"316":0.006421849322057998,"317":0.03044089007096874,"318":0.20375365091802652,"319":0.12017156009630138,"320":0.0359820018632217,"321":-0.14038089521946057,"322":-0.11194898509213151,"323":-0.15400070774531496,"324":0.06329600818979156,"325":0.040878875575219215,"326":0.007900360835788411,"327":-0.23381199808474473,"328":-0.13861524308087952,"329":-0.1823060794444298,"330":-0.14109129777837667,"331":0.15451046712546382,"332":0.1626081191983606,"333":0.08236293847198253,"334":-0.18420858844882945,"335":0.11606551350910357,"336":-0.04637447984235359,"337":0.12263652964696199,"338":-0.08395084730228641,"339":-0.1807963855042474,"340":0.053243506942358826,"341":0.12320556208340994,"342":0.05337732154760452,"343":0.18456584397411452,"344":-0.08937129295130744,"345":0.10956651031232278,"346":-0.10851702236286898,"347":0.036795362191000935,"348":0.08759268286953259,"349":0.18701913083759247,"350":-0.18894005767565064,"351":0.03221606387555381,"352":0.07693210843139259,"353":0.004665931109518182,"354":0.09953982538454494,"355":0.1490523894122381,"356":0.07824434508550294,"357":0.0395983670539423,"358":-0.13084987609947987,"359":0.0852755131788121,"360":-0.010752401033809526,"361":-0.06689795791049769,"362":0.022484482381248408,"363":0.22930591702874797,"364":0.02863868118548177,"365":-0.07696620409259324,"366":0.24040492702230942}},"6":{"bias":-0.23911925786283417,"weights":{"0":0.14422747296244962,"1":-0.09995414539446919,"2":0.12658104486845487,"3":-0.10632395464399456,"4":0.12554957406718809,"5":0.2338022736957757,"6":-0.08117758458192989,"7":0.1045661100855706,"8":0.12121747476208312,"9":-0.07706086159768928,"10":-0.11924795296314558,"11":-0.017140758864527997,"12":0.1234357757201779,"13":0.18405895576904704,"14":0.13791202684132048,"15":0.22873011280213093,"16":-0.07802688847420704,"17":-0.01912660930977739,"18":-0.11851347440552742,"19":-0.17094696141311305,"20":-0.0944675161067543,"21":0.04424488863890548,"22":0.09761578490667577,"23":0.07180837285513327,"24":-0.0015539315182729527,"25":0.16178959440045493,"26":-0.10162824090539346,"27":-0.08537301068684094,"28":-0.18219239803712878,"29":-0.12405666249513862,"30":0.10425424547801317,"31":-0.08233056053923202,"32":-0.24629592711866766,"33":0.14291736934408034,"34":-0.1766997183048435,"35":0.09267268932211968,"36":0.12169569427974963,"37":-0.19243642303347233,"38":-0.13767498971213185,"39":0.16415820201734996,"40":0.09956308397586341,"41":0.14588024811622152,"42":0.10879929477309169,"43":-0.1386663795870037,"44":0.06793952832899354,"45":-0.16464808288210966,"46":-0.06095898991702908,"47":-0.27516430524865904,"48":-0.023351522771719466,"49":-0.22388554836776492,"50":-0.02283721717235917,"51":0.03594040078074697,"52":-0.2471115827514652,"53":0.05902736164758955,"54":-0.20964296802290194,"55":0.025974386161755236,"56":-0.012519601382707876,"57":0.13743959071719206,"58":0.032526616035908396,"59":-0.0715922398177042,"60":0.11295624363887909,"61":-0.040154322620091366,"62":0.12544173379052123,"63":-0.14371013367452118,"64":0.0004361235238999433,"65":0.059224645676601746,"66":0.012424071986349762,"67":0.005692860780804867,"68":-0.10517789494914619,"69":0.16234994636721475,"70":-0.12459457904768802,"71":0.06938105297697163,"72":-0.1540872246222525,"73":0.16302550739176974,"74":-0.1761431649462526,"75":-0.19443099564022018,"76":-0.05005204993919763,"77":-0.18659408380307105,"78":-0.04161149473543597,"79":0.18930446532297002,"80":0.0876508611972619,"81":0.06828355573167247,"82":-0.010561249074588053,"83":-0.17409951495735032,"84":-0.15231357974259,"85":-0.11907179246133207,"86":-0.1874385400428044,"87":0.03352418467678841,"88":0.10270971998425367,"89":-0.01570252522005167,"90":0.08852815711867883,"91":0.1074598382784598,"92":0.007825315029403581,"93":-0.17887197124790402,"94":-0.05001506164951815,"95":-0.1610169402265389,"96":0.2317298792995513,"97":0.1802940633709709,"98":-0.18833252564232528,"99":0.16018861963487377,"100":-0.17166786943186965,"101":-0.10382092462657001,"102":-0.16476856965360645,"103":0.1310480121611828,"104":0.08130495966589346,"105":-0.09314431391532876,"106":0.17254810175407437,"107":0.021801968735262058,"108":0.12776069070807092,"109":0.1635254581776723,"110":-0.15669310746119997,"111":-0.033673861429435355,"112":-0.0250915678855778,"113":0.1323531445579997,"114":0.08988471038175617,"115":-0.02304809858254312,"116":-0.07962449640697256,"117":0.015725616607008976,"118":-0.013389630062836434,"119":-0.11299341683472573,"120":-0.1629359910628335,"121":0.07213763659855289,"122":0.06621498368821928,"123":-0.0059292180937641275,"124":0.13769348783437493,"125":-0.09684753350083464,"126":0.08206167901855335,"127":0.020895580015842345,"128":-0.05598186327383123,"129":0.14612812085528262,"130":-0.13701630883290175,"131":0.006074497539178856,"132":0.12251790828217513,"133":-0.13443898910411842,"134":0.07705762888067594,"135":0.022320809652241105,"136":-0.15955667653366065,"137":0.17218168754070476,"138":0.04661106008405789,"139":0.0872561965190999,"140":-0.104966393705651,"141":0.20072382637321504,"142":0.1794750809155538,"143":0.09232757110572892,"144":0.008431110059025911,"145":-0.06626411671479769,"146":0.13854960350941725,"147":0.13403352564099605,"148":-0.10172019656467894,"149":0.04175895837830029,"150":0.061530289142453884,"151":-0.07985355007763335,"152":0.09281869969156901,"153":0.030416376867178765,"154":-0.11285831422533277,"155":0.1575462167759757,"156":-0.12446934091537387,"157":-0.005571833606342967,"158":0.004692156286104998,"159":-0.1561071688818252,"160":-0.13289741495574933,"161":-0.0702166160351766,"162":0.24581065298273957,"163":0.23489343884719527,"164":0.1219442951025195,"165":0.18328170804816965,"166":0.06284565220029213,"167":-0.05710988745078845,"168":0.010582836520357198,"169":0.16861632961302075,"170":0.07400507935984503,"171":-0.030518147954797178,"172":0.07237394967531201,"173":-0.09406075781647519,"174":-0.11858962371746615,"175":0.15059838070153858,"176":-0.17001165308437027,"177":0.12528919398471905,"178":0.13267989481616582,"179":0.01165531662921983,"180":-0.10275446288738363,"181":-0.18877792991802947,"182":-0.17446589940665022,"183":-0.08710429865710373,"184":0.04428296396017235,"185":-0.11348155240130281,"186":0.012735187217656303,"187":-0.07684925922044483,"188":-0.10609246745905548,"189":-0.1620707434231745,"190":0.0027527293351316817,"191":0.13605830124955,"192":-0.19777088483369357,"193":-0.08458127601696414,"194":0.032331860779323575,"195":-0.07073502534966812,"196":-0.10068093551209359,"197":-0.13332255405048982,"198":0.05526388241263106,"199":0.18931773652786002,"200":-0.08719822392459753,"201":0.07391455149134726,"202":-0.0657345188826412,"203":-0.03593315610802148,"204":-0.034249338272124626,"205":-0.038742071546713365,"206":0.0028061273286696027,"207":0.042531959757182464,"208":0.19615191041403973,"209":0.03566527533962441,"210":0.19525107662794647,"211":0.03213569510542534,"212":-0.13839420936105165,"213":0.14020166440499995,"214":-0.0057130247932799,"215":-0.09372659509991636,"216":0.07827973625934485,"217":0.0930955794442536,"218":-0.14605658366216243,"219":-0.16461806382538427,"220":0.0985874883351625,"221":-0.13140844492740403,"222":-0.17096173342517662,"223":0.02974242706451351,"224":0.017105203911688606,"225":0.0022479815057092913,"226":0.07934911990973652,"227":0.18062214200161542,"228":0.050712668134527926,"229":0.16667983417615162,"230":-0.05983524867686507,"231":0.11287457185248541,"232":-0.011187450058842717,"233":0.12032925603104237,"234":0.19996698866101364,"235":-0.18733484043856657,"236":-0.09953011683293744,"237":-0.1684600166778986,"238":-0.04978871923881691,"239":-0.0037106474168150903,"240":-0.1136379552623089,"241":0.016565447006507437,"242":-0.10118420414056861,"243":0.09461785939923754,"244":-0.1883611282253533,"245":-0.153561567025015,"246":0.17359992436373994,"247":0.1727432824916882,"248":-0.15039370793520293,"249":-0.06756595934310192,"250":0.20651144931153892,"251":-0.014333817836533116,"252":-0.07179670866889928,"253":-0.09800149556167721,"254":-0.14712910069016366,"255":-0.0227854870469771,"256":0.1215716377125367,"257":-0.05854117996123709,"258":0.19932335752757868,"259":-0.10790222076061035,"260":0.030291971342189052,"261":0.08295805305693366,"262":-0.10251527801448782,"263":0.0030561828156418745,"264":-0.12267658858629918,"265":-0.23939665666056248,"266":0.0738830565747976,"267":0.05812293402838192,"268":-0.015376153430893614,"269":-0.0076835800664975355,"270":-0.211754461723442,"271":-0.2112382808824344,"272":0.01797298091000173,"273":-0.08081996059568468,"274":-0.19041906973682748,"275":-0.1149493648961238,"276":0.014891532783596314,"277":-0.25015323121490857,"278":-0.1585190059056476,"279":0.04987327051996119,"280":0.027466228423073287,"281":-0.006163938417430768,"282":0.027842142667815793,"283":-0.11455741336233452,"284":-0.0009059593506318669,"285":-0.1335804061549361,"286":-0.04263803657133564,"287":0.03982845261415652,"288":-0.15536776926097898,"289":-0.09506673340746448,"290":-0.0923263201968005,"291":-0.004524638499627859,"292":0.01485283220560562,"293":-0.19602972292822185,"294":-0.015303394453475342,"295":-0.020949871095118453,"296":0.02434931016131076,"297":0.0058598977086134745,"298":0.004015157510153271,"299":0.12026066919124898,"300":0.14155665276072313,"301":-0.002894823050171457,"302":0.1260806533356596,"303":-0.004865736295667214,"304":-0.15374248313064215,"305":-0.14255975269311927,"306":-0.020590339703092698,"307":-0.1671848294443568,"308":0.12746395429202548,"309":0.03518186060215526,"310":0.15918274832576526,"311":-0.21487319379605943,"312":-0.012769892430448102,"313":0.014070103818577139,"314":0.007954979227563844,"315":-0.0464177335788461,"316":-0.06659575363295872,"317":-0.003307047097083965,"318":0.08355670405234776,"319":-0.03244977059368981,"320":-0.04757809276900565,"321":-0.0405782594258621,"322":0.19047499025055192,"323":-0.1595559021696355,"324":0.02477756306177099,"325":0.09734573775142523,"326":0.13485297783470723,"327":-0.027421457274551083,"328":0.11236897970488519,"329":-0.16763561485271827,"330":-0.1345388995384141,"331":-0.027352764369830623,"332":-0.06141292133834514,"333":-0.10829844548242686,"334":-0.13592474833462498,"335":-0.00913514262505333,"336":0.08058096175769296,"337":0.18494564510212902,"338":-0.11945411820849958,"339":-0.0778873709136827,"340":-0.045873075750647786,"341":0.08366600252528822,"342":0.04256822326580025,"343":0.010469597260711345,"344":0.04959725950918969,"345":0.1870031833669606,"346":0.17656626889950858,"347":0.09930874149536653,"348":0.05683752392956008,"349":-0.0688329786688074,"350":-0.04153195465449405,"351":-0.11065731662771253,"352":0.20872414437482337,"353":-0.12718058871957294,"354":-0.0728746073300139,"355":0.21274269749349634,"356":-0.04566876997218934,"357":-0.1085455382773915,"358":0.06291477594495251,"359":0.00920327573146302,"360":0.09633783222186919,"361":0.12195911128349576,"362":0.17646676867637393,"363":0.0018594271786698266,"364":-0.009003048372886027,"365":-0.18754729040694526,"366":-0.15818777785530583}},"7":{"bias":-0.06757790283451887,"weights":{"0":0.16922040020422294,"1":0.00043064524752989654,"2":0.019330614095946868,"3":0.10582467305055378,"4":0.1807425519729099,"5":0.22967479231047108,"6":-0.09613175565866705,"7":0.24537597871722294,"8":0.10241367321451063,"9":-0.15457861928268746,"10":-0.04624172222644905,"11":0.006271472670589728,"12":0.1832435927715124,"13":0.18174958016703013,"14":-0.10885979626214708,"15":0.08724114838318314,"16":0.11603081645335335,"17":-0.031823459729380124,"18":-0.01067409658257432,"19":-0.05053874253560028,"20":0.06377638379714837,"21":-0.10192586335370837,"22":0.0687997844274684,"23":0.16192623154516558,"24":0.1785623381031714,"25":-0.11904987558808611,"26":-0.11754408881110065,"27":0.19625716925215675,"28":-0.08281579088064449,"29":0.00945792634184181,"30":-0.051743322302108874,"31":-0.03284867740256827,"32":0.2237715432798482,"33":0.0784901737357423,"34":-0.1799705553198486,"35":-0.033771429529503114,"36":0.09151313002746418,"37":0.1620203125168924,"38":0.07005361798074562,"39":0.1008324152414908,"40":-0.18012603436078226,"41":-0.07606078970551695,"42":-0.008419713085684321,"43":-0.05094437599466037,"44":0.17733967710614057,"45":0.13202304446503446,"46":-0.020075699166210974,"47":0.021195178045788205,"48":0.1722359056173768,"49":0.1137754800415584,"50":0.0642701864107572,"51":-0.1646774030970291,"52":-0.09718886937353999,"53":-0.09094062215830875,"54":-0.031179526426667596,"55":-0.19031463589068884,"56":-0.11700718441420112,"57":0.2035151002820444,"58":0.03224735477332412,"59":-0.09361405704981342,"60":0.05718959877880937,"61":0.04608169333600925,"62":0.1833644112750519,"63":0.14554884562383336,"64":0.14490937211154456,"65":0.03942489881217189,"66":-0.1096452848364569,"67":0.15691773282150145,"68":-0.138742455599303,"69":-0.05542146591170251,"70":0.184256902389626,"71":0.20414871287977054,"72":-0.10847405391153275,"73":-0.16627770032075953,"74":0.029557137069906307,"75":0.1420157717647319,"76":-0.17676783668984944,"77":0.09705486337707553,"78":0.23435776588233395,"79":-0.09254104254520241,"80":0.10240329365021415,"81":-0.049057882729414734,"82":0.16862609381863017,"83":-0.11736529018538024,"84":-0.10379659820227537,"85":-0.03217857446244051,"86":-0.07586817384561137,"87":-0.023489852970455336,"88":0.1705048219996908,"89":-0.09099736505568164,"90":0.09649754382801391,"91":0.13413839668502647,"92":0.1394807073041572,"93":0.1418750398757815,"94":0.1474002833410255,"95":-0.06701798165294008,"96":0.11771411966138956,"97":0.17744319262785724,"98":0.17359791239144684,"99":0.07422580965661862,"100":-0.009964677507227907,"101":0.09586327559421648,"102":0.01321814721947066,"103":-0.07105202649440068,"104":0.08921839014698126,"105":0.0569673712507855,"106":0.07723508661087408,"107":-0.11281966995467053,"108":-0.13027552612513918,"109":0.14021367873090648,"110":0.09726071630354441,"111":-0.22456223948779594,"112":-0.0380561503638479,"113":0.03945837199892754,"114":-0.07998878225524501,"115":0.104067684783008,"116":-0.07936573085215613,"117":-0.11910689466902817,"118":0.01946067339487289,"119":-0.1850143050685798,"120":-0.026160905378965708,"121":0.08755405866823222,"122":0.10029343354178054,"123":-0.07242281410606087,"124":-0.06945928915329176,"125":0.029579209209800603,"126":-0.17741494679537662,"127":-0.14348294157111363,"128":-0.18747223337652938,"129":0.046615870758295694,"130":-0.016408301916879066,"131":0.11038009478966712,"132":-0.021381366638645007,"133":-0.2040641453328303,"134":-0.10493446804403604,"135":0.15595588288141152,"136":-0.10308461543223746,"137":0.10204533942806067,"138":-0.03351119355356067,"139":-0.11525142992338695,"140":-0.1008185930240751,"141":-0.20330371058211197,"142":0.13769885184506142,"143":0.048885253603543316,"144":0.1814570622853831,"145":0.09404037371042934,"146":-0.14436427592332127,"147":0.11021512537638324,"148":-0.20702474230629345,"149":-0.08616058688344554,"150":0.1158012754476529,"151":0.066405966827949,"152":0.169432107866784,"153":-0.0978286127646107,"154":0.10306033026074958,"155":-0.19491660237631767,"156":-0.0986072707058752,"157":0.051016455903247875,"158":-0.13997264571778104,"159":-0.11584602932160122,"160":-0.14461666996477873,"161":-0.14649280663989445,"162":-0.22857695832967523,"163":0.0814081157617083,"164":0.25221696580247144,"165":-0.18250095083740664,"166":0.19084389745298722,"167":0.11474043265699098,"168":-0.12108420465705534,"169":0.0016264111594267616,"170":0.12795481945309625,"171":-0.02119449095479736,"172":0.18918793126879868,"173":0.1347898201187451,"174":-0.1371810649949901,"175":0.2211461929372999,"176":0.14459664376340148,"177":-0.0010580091586552681,"178":-0.08836361816957775,"179":-0.019392503367561573,"180":-0.11349544988069218,"181":-0.19029802937032844,"182":0.11657552403755699,"183":-0.028251294482729037,"184":-0.07135074275951343,"185":-0.017219425341256537,"186":-0.059151881772840954,"187":0.16194376666362728,"188":0.061379234866523906,"189":0.05166842232197306,"190":0.16782380704077512,"191":-0.060560176641380116,"192":0.1450780012236715,"193":0.1278753802107576,"194":-0.1756653872868635,"195":0.1566510069940438,"196":-0.12848628615110533,"197":-0.0009955474909888787,"198":-0.14917372959317862,"199":0.03434314729330506,"200":0.17756270669772645,"201":-0.12164945692211017,"202":0.10119158725402232,"203":-0.1452887100744725,"204":0.015118130600697489,"205":0.07863555278077039,"206":0.09866900979331199,"207":0.11606937921299522,"208":-0.18436211375676634,"209":-0.19310207853052094,"210":-0.18360033461018183,"211":-0.11628084245879444,"212":-0.20427811397997891,"213":0.1447171771740321,"214":-0.05158754065374759,"215":0.08648558446986243,"216":-0.010320064693507686,"217":0.11292835033705878,"218":-0.12236263499082067,"219":0.1682931482972498,"220":0.005430563688615712,"221":0.07447978931340925,"222":-0.08080681328072387,"223":0.08899910625909763,"224":0.13862673061662742,"225":-0.06713437600640898,"226":-0.0072815412386649314,"227":-0.05522321906531018,"228":0.15791539911594774,"229":-0.09205939947711089,"230":-0.15852335756401156,"231":-0.1538304086006157,"232":-0.0893862879801835,"233":0.020572947401546266,"234":-0.10246740532101194,"235":-0.050055044573645895,"236":-0.09644808989324204,"237":0.08530289498559714,"238":-0.01740532593163489,"239":-0.13760155757958017,"240":-0.0909721162991853,"241":0.0797259914012546,"242":0.19429185136309932,"243":0.15459534196129973,"244":0.0414088314334494,"245":0.17992124723467426,"246":-0.007859101642770065,"247":-0.021691170617985353,"248":0.14829356049900871,"249":0.20751445271753302,"250":-0.13413152555125327,"251":-0.02930060053476107,"252":-0.11041206100549546,"253":0.03770140534253474,"254":-0.06898302191697882,"255":0.03917431641125353,"256":-0.12334820687566143,"257":0.08422759302144617,"258":0.11543689412516281,"259":-0.1076698963691991,"260":0.14861273207364206,"261":0.019209226499987866,"262":-0.026268337302871654,"263":-0.033263641457530316,"264":-0.08493789594500943,"265":-0.1670535234046224,"266":0.15164309392389505,"267":-0.19573232070064345,"268":-0.17583853845514977,"269":0.11506412811683843,"270":-0.09485882367455262,"271":-0.06627091949374339,"272":0.0074618100781944485,"273":-0.1703423112511205,"274":-0.14452226971033275,"275":-0.16116221085152146,"276":0.09662111671711313,"277":0.06492124387165803,"278":0.1441023745638574,"279":-0.0019888901392482684,"280":-0.003418442035579478,"281":0.11433493723312191,"282":0.13342728973196438,"283":-0.1978282099414779,"284":0.10550159342982586,"285":-0.14920750293407234,"286":0.06411528112986041,"287":0.06789188276310644,"288":0.0393017155571857,"289":0.08423743973595532,"290":0.007284917885292297,"291":-0.16244549013095735,"292":0.17819350757088584,"293":-0.12246649167014508,"294":-0.20073839444394262,"295":-0.04763291087136679,"296":-0.016962960940184114,"297":-0.1775503653814523,"298":-0.017309036944768905,"299":0.19231738199658266,"300":-0.12090229811698172,"301":0.18459778428521711,"302":-0.19873748097899338,"303":0.08458473702315303,"304":-0.12649919906142826,"305":0.1563047159877388,"306":0.1068846274673649,"307":-0.12137659287355616,"308":0.13664091548182836,"309":-0.24664030568870193,"310":-0.016970752910670947,"311":-0.08336534374283273,"312":0.006017659553367756,"313":-0.045471690562044254,"314":0.07523693504861012,"315":0.015769724442201608,"316":0.0667422626281251,"317":-0.11436410693744407,"318":0.05129805785280595,"319":0.12115333723548503,"320":-0.1879611799854021,"321":0.1139508410089444,"322":0.16288433278445788,"323":0.12230283942861228,"324":-0.10712468996439793,"325":-0.19946866049332632,"326":-0.21305534771923926,"327":-0.2857196253787236,"328":0.057335190663201786,"329":0.06532532911942658,"330":-0.0028470085063469213,"331":0.15727492127381157,"332":0.15179765531027822,"333":0.03289824943890705,"334":-0.18794228880698471,"335":-0.07378530667077536,"336":-0.1719359960229259,"337":0.009637765735571562,"338":-0.019462243728020943,"339":0.1614878761331043,"340":0.0772469256536113,"341":-0.06661493058690703,"342":0.02007925619398306,"343":-0.03582859140504064,"344":0.17540060681691552,"345":0.18813494553454665,"346":-0.018040129191629704,"347":-0.06270405538575867,"348":0.035284212220645116,"349":-0.09084844804514429,"350":-0.0111040714936388,"351":0.05563583846048703,"352":0.05359063367793938,"353":0.22676586139605295,"354":0.03655207663605628,"355":-0.040823986059677915,"356":0.21665272687635398,"357":-0.062220660592580745,"358":0.21347863158697333,"359":0.16734187555256153,"360":0.020661417612152417,"361":-0.04968220005205381,"362":0.1821473955023439,"363":0.04140422555101309,"364":-0.20337458632272984,"365":-0.1787851443971391,"366":-0.17467544084637182}},"8":{"bias":0.011942427821743337,"weights":{"0":-0.12272603673712558,"1":0.04256264754884935,"2":0.053739870731836475,"3":0.06858532175360846,"4":-0.05849502878565306,"5":-0.12222530476472193,"6":-0.11609233812000366,"7":-0.010119656278409439,"8":0.09007882332949851,"9":-0.010976976795719783,"10":-0.11922174029313518,"11":0.00607608937161136,"12":0.04786792777837846,"13":0.03350127088967111,"14":0.09315584512515887,"15":0.21072451011570648,"16":0.16166617179265952,"17":-0.155674106518818,"18":0.14765423702049402,"19":0.13550027513016588,"20":0.17372260831974623,"21":0.13047219243190486,"22":0.15617077541262187,"23":-0.16162386583360103,"24":-0.03150936757789651,"25":0.15073449098397532,"26":0.03064845506478975,"27":0.08580472509011611,"28":0.0664731283448097,"29":0.06747391737990587,"30":-0.060216797462904016,"31":0.06555892188702031,"32":0.15146625238873274,"33":0.1575882796137814,"34":-0.04318829827056296,"35":-0.04791963800427751,"36":0.14822180156812143,"37":0.14519409636484076,"38":-0.03197388795936847,"39":-0.0780511203219385,"40":0.012244277792289324,"41":0.06216190709275082,"42":0.12248758700931076,"43":0.20195422742718827,"44":0.15895769489812023,"45":-0.09169457639865157,"46":0.02898533980446575,"47":0.18116393501609068,"48":-0.13986181251668103,"49":-0.019892548652391918,"50":0.06724513456690401,"51":0.08194496288365444,"52":-0.10946517115778341,"53":0.08652463613456485,"54":0.1584270854376013,"55":-0.1429329660335203,"56":-0.07110194412787088,"57":0.18969570372874764,"58":-0.11821536426829489,"59":0.17506248189828783,"60":-0.12920702244743307,"61":0.13077191500255086,"62":0.286324917866981,"63":-0.07261215920141519,"64":0.1192795432503088,"65":0.016170401794469512,"66":-0.020765225113052184,"67":-0.038017697856693955,"68":0.1763590197310632,"69":-0.00861905706607279,"70":0.049834895096426246,"71":-0.16817453102409366,"72":-0.09108273278283242,"73":-0.006572297350115261,"74":0.07926641290682108,"75":0.0990113022001712,"76":0.1892636321452272,"77":-0.007677093634779468,"78":0.18997170548644818,"79":-0.09131901025873566,"80":-0.16055358602862987,"81":-0.20018871332907467,"82":0.23549167535304527,"83":0.15440835797840227,"84":0.20375587224557287,"85":-0.09495012480503559,"86":0.05226200917182581,"87":0.12452412592033878,"88":-0.04979134084059514,"89":0.1443267626782382,"90":0.053681088452597836,"91":0.0934227330986791,"92":-0.14512144034561122,"93":-0.01217899028879706,"94":-0.10718737774730805,"95":0.1391713151893509,"96":0.1599518727767324,"97":-0.11169992234523914,"98":-0.021851512568448868,"99":0.05669689851108393,"100":0.07830769650714633,"101":0.07857314387614209,"102":0.15161470276465544,"103":0.05357661445657922,"104":0.11029399603840015,"105":0.1669051848460747,"106":-0.0032162825457699704,"107":0.01144646072483142,"108":0.04102837627010888,"109":0.10817502251508683,"110":-0.15175433073660713,"111":-0.05056307510321137,"112":-0.14000761762905703,"113":-0.080623086113118,"114":-0.022498038162086797,"115":-0.08843076389137441,"116":0.0624365341987176,"117":0.050270007324673543,"118":-0.19515469069476823,"119":-0.009361001562750385,"120":0.012952209881033756,"121":0.11115098596856933,"122":-0.1104991039309658,"123":0.04843281561963655,"124":0.005835081482029814,"125":0.18303860694467555,"126":0.07538767666844283,"127":0.09947636121512483,"128":0.057086578008344095,"129":-0.06695035791997041,"130":0.08354297429924981,"131":-0.1429287954147703,"132":-0.1775273115382902,"133":-0.017878980452865394,"134":0.10197548247651081,"135":-0.1609416865543381,"136":0.055312545852778776,"137":0.12554345646711165,"138":0.1869059649628417,"139":-0.0755355720027731,"140":0.009675006304086414,"141":-0.11724298964119333,"142":0.1565060451919494,"143":0.0780927323659955,"144":0.05270452696154194,"145":-0.01739114641239934,"146":0.09140309765079119,"147":-0.050732887454956924,"148":0.02845627286357287,"149":0.136454940064145,"150":-0.1853928961270542,"151":-0.16794374091203526,"152":0.030694098030722438,"153":0.006183822519799805,"154":0.1131443864112824,"155":0.12589490516931395,"156":0.14221255780741704,"157":-0.08572932591874591,"158":-0.06851996167187113,"159":0.11182263389802381,"160":-0.0903071075160199,"161":0.051602363994559766,"162":-0.020849088202562933,"163":-0.01279696557786843,"164":0.19627012725519735,"165":0.19489779700024293,"166":-0.05025877588850659,"167":-0.06230266272073114,"168":-0.08701601556718613,"169":0.1924399238948301,"170":-0.13084898575998438,"171":-0.11976822070956095,"172":0.1992498102717983,"173":0.1866700486115149,"174":0.16362210773086516,"175":0.13076983170421655,"176":-0.08563839106319886,"177":0.15409654559002162,"178":-0.10490083904753182,"179":0.11938645487487487,"180":-0.01527211331859402,"181":-0.10858123839959155,"182":-0.04124666036048883,"183":0.0137027667524866,"184":-0.027685473031746424,"185":-0.030910613933560812,"186":0.17352990655583786,"187":0.0841823179298768,"188":0.1317568314923975,"189":-0.014575131199799727,"190":0.010259251353784355,"191":-0.051322995918560134,"192":-0.009712048689275948,"193":-0.16505933179941326,"194":0.02612100134446026,"195":-0.14435311455317773,"196":0.04905075111066325,"197":-0.014991579818954303,"198":0.11089949734387644,"199":0.10193869592899168,"200":-0.007546104076224885,"201":0.0010279771502246637,"202":0.15339837541284138,"203":0.009667383621100926,"204":-0.017618576188423978,"205":-0.075524385652762,"206":-0.1839185118949905,"207":-0.041781512386070016,"208":-0.2024178729356019,"209":0.005831205271111161,"210":-0.10809057017766865,"211":-0.07648302936709518,"212":-0.19979601205897948,"213":0.08333261630039691,"214":-0.11820665600118506,"215":0.07791731034618883,"216":-0.2028615598823657,"217":0.0718231126107234,"218":-0.009394023966112304,"219":-0.05013237349753577,"220":0.03924040687460696,"221":-0.07402533937405771,"222":-0.09546367739629057,"223":-0.07294648010231257,"224":-0.14073073780136847,"225":0.11352985066196411,"226":-0.0951240753172499,"227":-0.004850700683980238,"228":0.16037167237986732,"229":-0.061854135547294825,"230":-0.004290206959490135,"231":0.09675931967733777,"232":-0.047646939601710486,"233":0.08645339473458398,"234":-0.1862601115431775,"235":0.13970959556469087,"236":0.08723256770681588,"237":-0.007251253488698834,"238":-0.18268648103524543,"239":-0.0029313127947019893,"240":0.048535511016794625,"241":-0.08314827562420897,"242":-0.1525933924443301,"243":-0.08403827435645343,"244":0.11385215558548785,"245":-0.03670935386007453,"246":0.005308355034320372,"247":0.03872986844848068,"248":0.0013480760577787184,"249":-0.016914494849952045,"250":-0.10658784242710549,"251":0.06169393613183654,"252":0.1489858222489797,"253":-0.17543381701413668,"254":0.18543665397915268,"255":0.1525038167424979,"256":0.13423588295349126,"257":0.010028276634259132,"258":0.012870154370183151,"259":0.011879666698024163,"260":0.07971494727727983,"261":0.07610348256989645,"262":0.10159005898110939,"263":-0.07366621565403282,"264":0.17428524577827853,"265":0.19127100840697786,"266":0.16181058295280332,"267":-0.0746948817644821,"268":0.013681958287165214,"269":-0.08540003676508653,"270":-0.012292965674816398,"271":-0.1750395568432322,"272":0.05069352952026756,"273":0.1150250849377244,"274":-0.014711834271713997,"275":-0.14151202405971636,"276":-0.13025561343431605,"277":0.08184118299505232,"278":-0.1576093150968484,"279":0.07872276539069921,"280":-0.18866734955504794,"281":-0.013244214090075403,"282":-0.09648024945756391,"283":0.04790422809919729,"284":0.17809201368077474,"285":-0.08345769749948447,"286":-0.05258852246573919,"287":-0.004091140640117691,"288":-0.04813906954716073,"289":0.028124199300450757,"290":0.18807967350922103,"291":-0.1518678012666515,"292":-0.07112299824464861,"293":0.03794739176723264,"294":-0.1044103207487072,"295":0.04699980084706681,"296":-0.0910889728976763,"297":-0.17248711213261772,"298":-0.038179286150542925,"299":0.17354469023920327,"300":-0.0748418565242922,"301":0.12362764674597687,"302":0.046896091706191544,"303":-0.0037343212989745136,"304":-0.08995095698894234,"305":0.1670701241494737,"306":-0.043502346421152666,"307":-0.13647841217691878,"308":-0.026739756096286805,"309":-0.006399426919577074,"310":0.05413742561078565,"311":-0.1258030987528524,"312":0.023361176116012097,"313":0.09487368427983857,"314":0.08719471971631894,"315":-0.12354554470823298,"316":-0.17005742376720073,"317":-0.10619870368339344,"318":0.00005629205818498375,"319":-0.05006984319107977,"320":0.17548320520275512,"321":-0.13346635031277834,"322":-0.03294912813726766,"323":0.10984407159442287,"324":-0.023008707523363172,"325":0.06224616898618517,"326":-0.018288658006012974,"327":-0.23223533620085224,"328":-0.059031438907257316,"329":0.07208710117458,"330":-0.07724085763008855,"331":-0.1755148228554759,"332":-0.14232633187565522,"333":0.006991490032630473,"334":-0.10833826290589434,"335":-0.015547439109394818,"336":-0.004647560763811792,"337":0.16937865748927836,"338":-0.11530817583114221,"339":-0.127793688590881,"340":0.04688604798225127,"341":0.14802004249534337,"342":-0.13948932666112748,"343":-0.01839698386765071,"344":-0.12393559825332504,"345":-0.07773943982886523,"346":0.12722923608152878,"347":0.1349312591146342,"348":0.11779313308380372,"349":0.1046381028255463,"350":0.057039628049062666,"351":-0.039510011002990494,"352":-0.12805444358286927,"353":-0.007410396237959001,"354":-0.008128469878458196,"355":0.018264562743938836,"356":0.1899217299459812,"357":0.004912296094474857,"358":-0.17042960872448215,"359":0.14933234880677898,"360":0.10753111818934975,"361":0.03994304466490316,"362":-0.07569504868211252,"363":0.14478269510547317,"364":-0.11203828254988966,"365":-0.015956535884425256,"366":0.10873254364198794}},"9":{"bias":0.08547369706919379,"weights":{"0":0.14841351560994268,"1":-0.0039054636579679996,"2":-0.06815500896356054,"3":-0.15652354466989482,"4":-0.01046896096977842,"5":-0.2188432321441346,"6":-0.04389654295899343,"7":-0.2319429703717596,"8":-0.2644220857412042,"9":0.06592469579436817,"10":-0.2657852792435705,"11":-0.04486238710096986,"12":-0.31500937927224537,"13":-0.03304606730659001,"14":-0.04548126445264804,"15":-0.3256887933157941,"16":-0.06863062740979553,"17":0.006724723394075953,"18":-0.13971354352973164,"19":-0.11119010536785917,"20":-0.16395593391928176,"21":-0.022367667552785454,"22":-0.1671445939146873,"23":-0.0588205920399463,"24":-0.1293677918555117,"25":-0.04007227222469276,"26":0.09181832249387942,"27":0.06071532643011658,"28":0.0791126810010614,"29":0.2202769857906656,"30":0.2093307070177064,"31":0.2158136053701495,"32":-0.042288040171238696,"33":0.0387909064362799,"34":0.11121394945379,"35":-0.2188406619529371,"36":-0.13761124198852379,"37":0.1633811000739955,"38":-0.19616826887028913,"39":-0.177644209061676,"40":0.03427576456013581,"41":-0.1588197542200173,"42":0.16264070989404386,"43":0.17846123521888776,"44":0.05835069055607879,"45":0.15120347937772408,"46":0.03544601702418741,"47":0.0537416796223134,"48":-0.021475577559911967,"49":0.08433016984359341,"50":0.16555046784208652,"51":-0.007606126719423014,"52":0.08681534367327096,"53":0.15610642887078618,"54":0.16349439790326417,"55":-0.12163220159169676,"56":-0.025499987307234413,"57":0.05992691635225384,"58":0.22009073497819512,"59":0.01592097189041244,"60":0.03857912135059792,"61":0.11336904807162303,"62":-0.02397145169737484,"63":0.09037963580949596,"64":0.16129070430637232,"65":-0.08527434960108309,"66":0.23208657276930403,"67":-0.07623122093716742,"68":-0.03817922234253112,"69":-0.1731564509519365,"70":0.009689199858177431,"71":0.07399053532975576,"72":-0.05942601138667262,"73":-0.017245476088006348,"74":0.14324818165051273,"75":-0.18737717324415207,"76":0.16150709440337574,"77":0.03233244557357359,"78":-0.00627042251808853,"79":-0.1487377452021715,"80":0.12126870317739595,"81":-0.1597159255063742,"82":0.22379609486730256,"83":-0.10292223002007742,"84":-0.17535792459105723,"85":-0.15160858433538507,"86":-0.1700312464812665,"87":0.10225222198528519,"88":-0.004521856716779283,"89":0.20159249735747983,"90":-0.031811572915407246,"91":0.05464854825618159,"92":0.1073396377933065,"93":0.15161366154672845,"94":0.07713931457961183,"95":0.25273145081341475,"96":-0.24587835233003785,"97":0.15424763743722733,"98":0.10348511335802603,"99":-0.020913616576194248,"100":0.0012078710699817668,"101":-0.06512485916921101,"102":-0.05453591292780486,"103":0.07138297427945829,"104":-0.08491221976361502,"105":0.10173941121233382,"106":0.10793089185950375,"107":0.039820057562332645,"108":-0.00774829702891423,"109":0.08429197518054958,"110":0.06399459331518392,"111":-0.003642074218177397,"112":-0.0568516111751746,"113":0.014228368797782682,"114":-0.06402330857285568,"115":-0.15919045221071573,"116":0.005993033226111021,"117":0.08310796784216982,"118":0.11540877526138468,"119":0.09878171100273017,"120":-0.17226426656815785,"121":0.05061151524932061,"122":0.0009317615806866233,"123":-0.1597230696324938,"124":0.04186666823340683,"125":0.13453924331661218,"126":0.17842227775830025,"127":-0.1633295250062921,"128":0.08217478306231818,"129":0.09984476647610531,"130":0.0230116572823512,"131":0.16004580381962724,"132":0.010705425380023044,"133":0.0758221598203207,"134":0.05764319308761367,"135":0.05258894356827987,"136":-0.1457750464732093,"137":0.01968011665064566,"138":0.13277080803875652,"139":-0.038648846115620215,"140":0.12683230011008575,"141":0.024549790276740823,"142":-0.1043628141535326,"143":-0.036667668641718776,"144":-0.03690946519712153,"145":0.021837873322231735,"146":0.06158384732259202,"147":-0.1507845598991252,"148":-0.0648745919879111,"149":-0.004809404887502678,"150":0.19602764673043607,"151":0.1792230648767643,"152":-0.15300405405199688,"153":0.00274157476352366,"154":-0.1125598208230783,"155":0.0626776367615091,"156":-0.13645757531533437,"157":0.0028497669843270384,"158":-0.03304598529751521,"159":-0.09961457850332145,"160":-0.16747322026199976,"161":-0.0183868783503103,"162":-0.10249382648362607,"163":0.1821701938092957,"164":-0.28072773164458065,"165":-0.048858555765640514,"166":0.007128091326600769,"167":-0.010277843580204437,"168":-0.17342287568886697,"169":-0.011303510716789141,"170":-0.1889984344407065,"171":0.1608393608929138,"172":-0.21379696853178745,"173":-0.02090769279726805,"174":-0.23084083656201698,"175":-0.1004728762299522,"176":0.0423802206832782,"177":0.08581021965708363,"178":0.08294364472804666,"179":-0.0094125165696265,"180":-0.08422535865842333,"181":-0.156920665185865,"182":0.08408055100156248,"183":-0.011949458763348212,"184":0.14714062200758155,"185":-0.04336996552058672,"186":0.050584626173063,"187":-0.010080713778425761,"188":-0.1303015879080605,"189":0.2579821626962903,"190":0.11856709169469976,"191":0.03712507994917092,"192":-0.10774506315940224,"193":-0.1650519239177241,"194":-0.07708014097788374,"195":0.0652773837497555,"196":0.10527145339860905,"197":0.199639916522368,"198":-0.12857080054317022,"199":0.0090444150703769,"200":0.22278625281899433,"201":0.12029603107253034,"202":0.06262722224104536,"203":-0.004566599414573473,"204":-0.14015833988488868,"205":0.12163885638224642,"206":-0.06619651108869372,"207":0.09078282656769401,"208":0.12897344063889907,"209":-0.15267426665528191,"210":0.054857086085367504,"211":-0.08467898190423886,"212":0.11857661593515474,"213":0.06635725484737934,"214":0.1742743131856669,"215":-0.18536522629194016,"216":0.03852971852554973,"217":0.12099756731794627,"218":0.10966223152262712,"219":0.033803917206749544,"220":-0.09083710942009693,"221":0.09820300327181578,"222":0.11285048710119584,"223":0.08796559829512653,"224":-0.13140139694555572,"225":0.003854305996298095,"226":-0.19329412074296207,"227":0.15434060472074268,"228":-0.027140240142451134,"229":0.17044945077768914,"230":0.0003205987028621756,"231":0.08317761362932134,"232":-0.2058373515723738,"233":0.04485811176487788,"234":0.08670572096088093,"235":-0.12704440835512237,"236":-0.0573603757545064,"237":-0.08167693294870096,"238":0.13130545863902043,"239":0.19149483958492922,"240":-0.04306727464001023,"241":0.15786536790207562,"242":-0.03881739790330644,"243":-0.04178137015472351,"244":-0.18465647750782804,"245":-0.08355293875326546,"246":0.1783524239707524,"247":-0.21081980730913577,"248":-0.05362443509665297,"249":-0.1649370263616848,"250":0.08477375929734565,"251":0.0819223158099451,"252":-0.059452676783846435,"253":-0.07062469276261679,"254":-0.013968184259917074,"255":-0.06301081793948653,"256":0.0027988781462481654,"257":-0.15160204556396048,"258":0.1743743494819313,"259":0.1534336946543601,"260":0.07377825074295602,"261":0.021052153892194253,"262":-0.17894120920078663,"263":0.0806269195587839,"264":-0.004195594237861035,"265":0.050108546105657695,"266":0.12742203875380534,"267":0.21817979068350987,"268":0.13396623509085837,"269":0.01792491989086854,"270":-0.11526122549136962,"271":0.10964065484589552,"272":0.1552524266793122,"273":-0.05852450890511615,"274":-0.02200990201025223,"275":-0.06474917262684132,"276":0.03195126961898257,"277":0.06088636132128653,"278":0.0067040820750391885,"279":0.09446972271578782,"280":-0.024227943089169528,"281":0.10407610009432702,"282":0.007688440105166263,"283":-0.007555139437199308,"284":0.006126183553461139,"285":0.023792667129587705,"286":-0.024148092930125896,"287":-0.12546724292406888,"288":0.07113454261299958,"289":0.10110357103944762,"290":-0.13599688307461766,"291":0.017076526848784124,"292":-0.010307227778412168,"293":0.07361546452985217,"294":0.15215435206126512,"295":-0.026493131153194537,"296":0.06018736138521183,"297":-0.1478431772328591,"298":0.19651501002002075,"299":-0.04220894389256332,"300":-0.15389070139633287,"301":-0.012811928138423493,"302":-0.11591452374134885,"303":0.08826743619310848,"304":-0.09139863715515058,"305":0.054476920999764825,"306":0.1429889397348273,"307":-0.004408305134921507,"308":-0.19749049316692552,"309":0.02479206638920534,"310":0.049456675133101945,"311":0.16229066294574318,"312":0.17431343815083358,"313":-0.16616453285023508,"314":0.014572738233781128,"315":0.10065978065435852,"316":-0.15194986225586418,"317":0.1768292946424921,"318":-0.03455208716370501,"319":-0.10236466884590578,"320":0.08704110492369302,"321":-0.05478170863068366,"322":0.13627624549795542,"323":0.11024388861238096,"324":0.047288950076769906,"325":-0.021289268198995414,"326":-0.10415255396934427,"327":-0.10140078546334504,"328":-0.022108338863824014,"329":0.0022743445418254107,"330":-0.02082582324126742,"331":0.14308821376714068,"332":0.17913211050043745,"333":0.20500865018366562,"334":0.13761610291268267,"335":0.05732740950180354,"336":0.014379969589729836,"337":-0.051119295071724066,"338":-0.1874672749656533,"339":-0.005728708702474272,"340":-0.024917603553883262,"341":-0.02017266832449325,"342":0.1505795393814538,"343":0.06449207019642979,"344":-0.16816619401393446,"345":-0.10864634937234867,"346":0.19212332337877297,"347":0.09468238210682992,"348":0.021234448206196826,"349":-0.12312579931283478,"350":0.13070679296987264,"351":-0.06967624903861311,"352":0.04006454906542169,"353":0.03145133873623877,"354":0.08019054745471928,"355":0.09866877520091584,"356":0.022141986564168912,"357":-0.20973128259499854,"358":-0.1548702266992537,"359":-0.15571369645788044,"360":-0.17698414548476357,"361":0.05514751934547984,"362":-0.051959606489696296,"363":-0.17990979681043792,"364":-0.15474000500422988,"365":-0.058551876134344004,"366":-0.13928850928489359}},"10":{"bias":-0.21649828257716383,"weights":{"0":0.1589207877960975,